<?xml version="1.0"?>
<opencv_storage>
<cascade>
  <stageType>BOOST</stageType>
  <featureType>HAAR</featureType>
  <height>40</height>
  <width>40</width>
  <stageParams>
    <boostType>GAB</boostType>
    <minHitRate>9.9900001287460327e-01</minHitRate>
    <maxFalseAlarm>5.0000000000000000e-01</maxFalseAlarm>
    <weightTrimRate>9.4999999999999996e-01</weightTrimRate>
    <maxDepth>1</maxDepth>
    <maxWeakCount>100</maxWeakCount></stageParams>
  <featureParams>
    <maxCatCount>0</maxCatCount>
    <featSize>1</featSize>
    <mode>BASIC</mode></featureParams>
  <stageNum>15</stageNum>
  <stages>
    <!-- stage 0 -->
    <_>
      <maxWeakCount>12</maxWeakCount>
      <stageThreshold>-1.9918552637100220e+00</stageThreshold>
      <weakClassifiers>
        <_>
          <internalNodes>
            0 -1 58 -4.2156148701906204e-02</internalNodes>
          <leafValues>
            1.9148936867713928e-01 -8.3941328525543213e-01</leafValues></_>
        <_>
          <internalNodes>
            0 -1 209 -2.1077726036310196e-02</internalNodes>
          <leafValues>
            4.2018517851829529e-01 -5.1617342233657837e-01</leafValues></_>
        <_>
          <internalNodes>
            0 -1 262 8.8017620146274567e-03</internalNodes>
          <leafValues>
            -3.2031542062759399e-01 5.1604998111724854e-01</leafValues></_>
        <_>
          <internalNodes>
            0 -1 229 -7.7739795669913292e-03</internalNodes>
          <leafValues>
            5.1404243707656860e-01 -2.9851418733596802e-01</leafValues></_>
        <_>
          <internalNodes>
            0 -1 51 5.1197208464145660e-02</internalNodes>
          <leafValues>
            -2.1478596329689026e-01 5.9014010429382324e-01</leafValues></_>
        <_>
          <internalNodes>
            0 -1 409 -5.0139268860220909e-03</internalNodes>
          <leafValues>
            4.8832687735557556e-01 -2.2037044167518616e-01</leafValues></_>
        <_>
          <internalNodes>
            0 -1 231 1.3750833459198475e-02</internalNodes>
          <leafValues>
            -2.0134077966213226e-01 4.9878180027008057e-01</leafValues></_>
        <_>
          <internalNodes>
            0 -1 52 -1.3230855762958527e-01</internalNodes>
          <leafValues>
            5.4506421089172363e-01 -1.6424116492271423e-01</leafValues></_>
        <_>
          <internalNodes>
            0 -1 450 -9.4284396618604660e-03</internalNodes>
          <leafValues>
            6.1047661304473877e-01 -1.3789290189743042e-01</leafValues></_>
        <_>
          <internalNodes>
            0 -1 377 -2.3723524063825607e-02</internalNodes>
          <leafValues>
            4.5049074292182922e-01 -1.7539945244789124e-01</leafValues></_>
        <_>
          <internalNodes>
            0 -1 80 -2.0510131493210793e-02</internalNodes>
          <leafValues>
            5.5477565526962280e-01 -9.6683703362941742e-02</leafValues></_>
        <_>
          <internalNodes>
            0 -1 55 1.2877676635980606e-02</internalNodes>
          <leafValues>
            -1.3273732364177704e-01 5.8418869972229004e-01</leafValues></_></weakClassifiers></_>
    <!-- stage 1 -->
    <_>
      <maxWeakCount>22</maxWeakCount>
      <stageThreshold>-1.9658768177032471e+00</stageThreshold>
      <weakClassifiers>
        <_>
          <internalNodes>
            0 -1 176 -2.9401671141386032e-02</internalNodes>
          <leafValues>
            -2.7617147564888000e-01 -8.3603197336196899e-01</leafValues></_>
        <_>
          <internalNodes>
            0 -1 170 1.6559273004531860e-02</internalNodes>
          <leafValues>
            -5.3633183240890503e-01 2.2070713341236115e-01</leafValues></_>
        <_>
          <internalNodes>
            0 -1 267 -1.5773560851812363e-02</internalNodes>
          <leafValues>
            4.3872734904289246e-01 -2.0532459020614624e-01</leafValues></_>
        <_>
          <internalNodes>
            0 -1 387 -2.3251553066074848e-03</internalNodes>
          <leafValues>
            2.9644495248794556e-01 -2.6767525076866150e-01</leafValues></_>
        <_>
          <internalNodes>
            0 -1 302 -1.0736194439232349e-02</internalNodes>
          <leafValues>
            4.4984817504882812e-01 -1.4895452558994293e-01</leafValues></_>
        <_>
          <internalNodes>
            0 -1 417 3.4335469827055931e-03</internalNodes>
          <leafValues>
            -1.3662472367286682e-01 4.3605428934097290e-01</leafValues></_>
        <_>
          <internalNodes>
            0 -1 465 4.8179831355810165e-03</internalNodes>
          <leafValues>
            9.3988351523876190e-02 -7.3273199796676636e-01</leafValues></_>
        <_>
          <internalNodes>
            0 -1 232 1.3128966093063354e-02</internalNodes>
          <leafValues>
            -1.4780431985855103e-01 4.1781511902809143e-01</leafValues></_>
        <_>
          <internalNodes>
            0 -1 185 -1.2465551495552063e-02</internalNodes>
          <leafValues>
            3.8564670085906982e-01 -1.7647983133792877e-01</leafValues></_>
        <_>
          <internalNodes>
            0 -1 25 8.2149310037493706e-03</internalNodes>
          <leafValues>
            1.0662174224853516e-01 -9.1192257404327393e-01</leafValues></_>
        <_>
          <internalNodes>
            0 -1 350 1.2286036275327206e-02</internalNodes>
          <leafValues>
            -2.1994221210479736e-01 3.0661660432815552e-01</leafValues></_>
        <_>
          <internalNodes>
            0 -1 81 2.5357674807310104e-02</internalNodes>
          <leafValues>
            -1.1937692016363144e-01 4.2752465605735779e-01</leafValues></_>
        <_>
          <internalNodes>
            0 -1 93 -1.6812916845083237e-02</internalNodes>
          <leafValues>
            4.4132223725318909e-01 -1.6546517610549927e-01</leafValues></_>
        <_>
          <internalNodes>
            0 -1 132 3.3842967823147774e-03</internalNodes>
          <leafValues>
            -1.2861168384552002e-01 4.6954858303070068e-01</leafValues></_>
        <_>
          <internalNodes>
            0 -1 42 -5.9859871864318848e-02</internalNodes>
          <leafValues>
            3.8341423869132996e-01 -1.5561096370220184e-01</leafValues></_>
        <_>
          <internalNodes>
            0 -1 75 1.5352655202150345e-02</internalNodes>
          <leafValues>
            -1.2636280059814453e-01 4.5015963912010193e-01</leafValues></_>
        <_>
          <internalNodes>
            0 -1 416 1.8423177301883698e-02</internalNodes>
          <leafValues>
            -1.2499679625034332e-01 4.6346694231033325e-01</leafValues></_>
        <_>
          <internalNodes>
            0 -1 440 -1.8226593732833862e-02</internalNodes>
          <leafValues>
            5.3554463386535645e-01 -1.0340910404920578e-01</leafValues></_>
        <_>
          <internalNodes>
            0 -1 54 -9.7741722129285336e-04</internalNodes>
          <leafValues>
            -5.6507492065429688e-01 1.0550648719072342e-01</leafValues></_>
        <_>
          <internalNodes>
            0 -1 346 3.3004658762365580e-03</internalNodes>
          <leafValues>
            -1.4802834391593933e-01 4.1525483131408691e-01</leafValues></_>
        <_>
          <internalNodes>
            0 -1 101 4.7948682913556695e-04</internalNodes>
          <leafValues>
            1.3382343947887421e-01 -4.4863265752792358e-01</leafValues></_>
        <_>
          <internalNodes>
            0 -1 116 -3.3192031551152468e-03</internalNodes>
          <leafValues>
            2.3806877434253693e-01 -2.4335490167140961e-01</leafValues></_></weakClassifiers></_>
    <!-- stage 2 -->
    <_>
      <maxWeakCount>26</maxWeakCount>
      <stageThreshold>-1.9602096080780029e+00</stageThreshold>
      <weakClassifiers>
        <_>
          <internalNodes>
            0 -1 361 1.9126320257782936e-02</internalNodes>
          <leafValues>
            -8.1935209035873413e-01 -4.3980345129966736e-01</leafValues></_>
        <_>
          <internalNodes>
            0 -1 205 3.3993974328041077e-02</internalNodes>
          <leafValues>
            -3.7119245529174805e-01 2.5991198420524597e-01</leafValues></_>
        <_>
          <internalNodes>
            0 -1 227 -7.4392664246261120e-03</internalNodes>
          <leafValues>
            2.7442568540573120e-01 -2.4814796447753906e-01</leafValues></_>
        <_>
          <internalNodes>
            0 -1 435 -1.2115882709622383e-02</internalNodes>
          <leafValues>
            3.9997953176498413e-01 -1.5952293574810028e-01</leafValues></_>
        <_>
          <internalNodes>
            0 -1 452 3.0933594331145287e-02</internalNodes>
          <leafValues>
            -1.0461225360631943e-01 5.7381230592727661e-01</leafValues></_>
        <_>
          <internalNodes>
            0 -1 447 -6.6910013556480408e-03</internalNodes>
          <leafValues>
            -7.1682810783386230e-01 8.9479699730873108e-02</leafValues></_>
        <_>
          <internalNodes>
            0 -1 482 -1.2542938813567162e-02</internalNodes>
          <leafValues>
            4.1490980982780457e-01 -1.2042512744665146e-01</leafValues></_>
        <_>
          <internalNodes>
            0 -1 169 -2.0291220396757126e-02</internalNodes>
          <leafValues>
            4.2184790968894958e-01 -1.2219715118408203e-01</leafValues></_>
        <_>
          <internalNodes>
            0 -1 118 3.4437759313732386e-03</internalNodes>
          <leafValues>
            -1.2907825410366058e-01 3.5320407152175903e-01</leafValues></_>
        <_>
          <internalNodes>
            0 -1 517 -2.3912001051940024e-04</internalNodes>
          <leafValues>
            -6.7169749736785889e-01 7.5371816754341125e-02</leafValues></_>
        <_>
          <internalNodes>
            0 -1 502 -9.0292940149083734e-04</internalNodes>
          <leafValues>
            -6.4297956228256226e-01 7.1735829114913940e-02</leafValues></_>
        <_>
          <internalNodes>
            0 -1 251 5.8333240449428558e-03</internalNodes>
          <leafValues>
            -1.5358401834964752e-01 2.6943391561508179e-01</leafValues></_>
        <_>
          <internalNodes>
            0 -1 322 -6.2918257899582386e-03</internalNodes>
          <leafValues>
            3.7680298089981079e-01 -1.6748680174350739e-01</leafValues></_>
        <_>
          <internalNodes>
            0 -1 22 -7.4552199293975718e-06</internalNodes>
          <leafValues>
            2.2558382153511047e-01 -1.8322126567363739e-01</leafValues></_>
        <_>
          <internalNodes>
            0 -1 199 6.4121410250663757e-03</internalNodes>
          <leafValues>
            -1.3187809288501740e-01 3.2383707165718079e-01</leafValues></_>
        <_>
          <internalNodes>
            0 -1 127 -6.8581476807594299e-02</internalNodes>
          <leafValues>
            3.7832820415496826e-01 -1.2208367139101028e-01</leafValues></_>
        <_>
          <internalNodes>
            0 -1 171 7.0580899715423584e-02</internalNodes>
          <leafValues>
            -1.1173630505800247e-01 4.0531685948371887e-01</leafValues></_>
        <_>
          <internalNodes>
            0 -1 252 3.9722215384244919e-02</internalNodes>
          <leafValues>
            5.4760232567787170e-02 -8.7370020151138306e-01</leafValues></_>
        <_>
          <internalNodes>
            0 -1 410 1.5706634148955345e-02</internalNodes>
          <leafValues>
            -1.3509841263294220e-01 3.5682535171508789e-01</leafValues></_>
        <_>
          <internalNodes>
            0 -1 492 3.3314498141407967e-03</internalNodes>
          <leafValues>
            -1.2430437654256821e-01 3.3193352818489075e-01</leafValues></_>
        <_>
          <internalNodes>
            0 -1 326 8.2573923282325268e-04</internalNodes>
          <leafValues>
            8.1548497080802917e-02 -5.6043791770935059e-01</leafValues></_>
        <_>
          <internalNodes>
            0 -1 78 1.6740206629037857e-02</internalNodes>
          <leafValues>
            -8.7113499641418457e-02 5.1437664031982422e-01</leafValues></_>
        <_>
          <internalNodes>
            0 -1 328 -3.3244946971535683e-03</internalNodes>
          <leafValues>
            2.0952859520912170e-01 -1.9941090047359467e-01</leafValues></_>
        <_>
          <internalNodes>
            0 -1 313 1.4758687466382980e-03</internalNodes>
          <leafValues>
            -1.1340181529521942e-01 3.9199459552764893e-01</leafValues></_>
        <_>
          <internalNodes>
            0 -1 79 6.3782371580600739e-04</internalNodes>
          <leafValues>
            8.9928351342678070e-02 -4.9694147706031799e-01</leafValues></_>
        <_>
          <internalNodes>
            0 -1 300 6.2210019677877426e-04</internalNodes>
          <leafValues>
            -1.5860381722450256e-01 2.8555631637573242e-01</leafValues></_></weakClassifiers></_>
    <!-- stage 3 -->
    <_>
      <maxWeakCount>33</maxWeakCount>
      <stageThreshold>-2.0114889144897461e+00</stageThreshold>
      <weakClassifiers>
        <_>
          <internalNodes>
            0 -1 284 6.8984434008598328e-02</internalNodes>
          <leafValues>
            -7.7535444498062134e-01 -2.3684211075305939e-01</leafValues></_>
        <_>
          <internalNodes>
            0 -1 224 6.9780513644218445e-02</internalNodes>
          <leafValues>
            -3.3975172042846680e-01 3.3399379253387451e-01</leafValues></_>
        <_>
          <internalNodes>
            0 -1 73 -1.7608202993869781e-02</internalNodes>
          <leafValues>
            3.1517264246940613e-01 -1.4874860644340515e-01</leafValues></_>
        <_>
          <internalNodes>
            0 -1 120 1.7879232764244080e-02</internalNodes>
          <leafValues>
            -1.3331283628940582e-01 3.4941226243972778e-01</leafValues></_>
        <_>
          <internalNodes>
            0 -1 28 -6.9610830396413803e-03</internalNodes>
          <leafValues>
            -6.4048910140991211e-01 7.0303142070770264e-02</leafValues></_>
        <_>
          <internalNodes>
            0 -1 141 3.1091952696442604e-03</internalNodes>
          <leafValues>
            -7.5951561331748962e-02 4.5551747083663940e-01</leafValues></_>
        <_>
          <internalNodes>
            0 -1 85 -2.9312269762158394e-03</internalNodes>
          <leafValues>
            2.4071432650089264e-01 -2.2814226150512695e-01</leafValues></_>
        <_>
          <internalNodes>
            0 -1 38 3.2201799331232905e-04</internalNodes>
          <leafValues>
            1.0855690389871597e-01 -3.6234387755393982e-01</leafValues></_>
        <_>
          <internalNodes>
            0 -1 472 7.1275052614510059e-03</internalNodes>
          <leafValues>
            -9.7935535013675690e-02 3.7179595232009888e-01</leafValues></_>
        <_>
          <internalNodes>
            0 -1 453 -2.1177383139729500e-02</internalNodes>
          <leafValues>
            3.2038107514381409e-01 -1.5404328703880310e-01</leafValues></_>
        <_>
          <internalNodes>
            0 -1 437 -1.1894466588273644e-03</internalNodes>
          <leafValues>
            3.7169000506401062e-01 -1.0351742804050446e-01</leafValues></_>
        <_>
          <internalNodes>
            0 -1 467 -1.2349265161901712e-03</internalNodes>
          <leafValues>
            -5.8974856138229370e-01 6.7915156483650208e-02</leafValues></_>
        <_>
          <internalNodes>
            0 -1 384 3.1264817807823420e-03</internalNodes>
          <leafValues>
            -1.5543027222156525e-01 2.5535002350807190e-01</leafValues></_>
        <_>
          <internalNodes>
            0 -1 212 -1.9393938779830933e-01</internalNodes>
          <leafValues>
            7.2136968374252319e-01 -5.7230956852436066e-02</leafValues></_>
        <_>
          <internalNodes>
            0 -1 353 1.6421391046606004e-04</internalNodes>
          <leafValues>
            -9.6726484596729279e-02 3.8617020845413208e-01</leafValues></_>
        <_>
          <internalNodes>
            0 -1 23 -7.6411375775933266e-03</internalNodes>
          <leafValues>
            -7.4441576004028320e-01 5.9526789933443069e-02</leafValues></_>
        <_>
          <internalNodes>
            0 -1 88 2.3800514638423920e-02</internalNodes>
          <leafValues>
            -1.5884822607040405e-01 2.7559503912925720e-01</leafValues></_>
        <_>
          <internalNodes>
            0 -1 144 6.8079484626650810e-03</internalNodes>
          <leafValues>
            -9.3826353549957275e-02 4.5868358016014099e-01</leafValues></_>
        <_>
          <internalNodes>
            0 -1 469 -6.0035157948732376e-03</internalNodes>
          <leafValues>
            3.8187685608863831e-01 -1.0785093158483505e-01</leafValues></_>
        <_>
          <internalNodes>
            0 -1 57 -3.9985124021768570e-04</internalNodes>
          <leafValues>
            -4.1707602143287659e-01 9.8915152251720428e-02</leafValues></_>
        <_>
          <internalNodes>
            0 -1 495 -1.1449037119746208e-02</internalNodes>
          <leafValues>
            -7.1903425455093384e-01 5.5396683514118195e-02</leafValues></_>
        <_>
          <internalNodes>
            0 -1 363 2.2085709497332573e-02</internalNodes>
          <leafValues>
            -9.6444189548492432e-02 4.3291103839874268e-01</leafValues></_>
        <_>
          <internalNodes>
            0 -1 395 -1.6207650769501925e-03</internalNodes>
          <leafValues>
            1.9789479672908783e-01 -1.9761179387569427e-01</leafValues></_>
        <_>
          <internalNodes>
            0 -1 310 8.5551803931593895e-04</internalNodes>
          <leafValues>
            6.6238999366760254e-02 -5.5996572971343994e-01</leafValues></_>
        <_>
          <internalNodes>
            0 -1 242 8.1662535667419434e-03</internalNodes>
          <leafValues>
            -1.3039784133434296e-01 3.2112017273902893e-01</leafValues></_>
        <_>
          <internalNodes>
            0 -1 119 -1.1421735398471355e-03</internalNodes>
          <leafValues>
            2.3208083212375641e-01 -1.7554450035095215e-01</leafValues></_>
        <_>
          <internalNodes>
            0 -1 488 -1.0173758491873741e-02</internalNodes>
          <leafValues>
            4.6857744455337524e-01 -9.0581916272640228e-02</leafValues></_>
        <_>
          <internalNodes>
            0 -1 11 3.3781021833419800e-02</internalNodes>
          <leafValues>
            -1.0742104053497314e-01 3.9465627074241638e-01</leafValues></_>
        <_>
          <internalNodes>
            0 -1 7 -8.1887487322092056e-03</internalNodes>
          <leafValues>
            2.3913682997226715e-01 -1.8325416743755341e-01</leafValues></_>
        <_>
          <internalNodes>
            0 -1 63 -3.3857254311442375e-04</internalNodes>
          <leafValues>
            -5.2063196897506714e-01 7.7500127255916595e-02</leafValues></_>
        <_>
          <internalNodes>
            0 -1 164 -8.4947922732681036e-04</internalNodes>
          <leafValues>
            2.3845545947551727e-01 -1.6789209842681885e-01</leafValues></_>
        <_>
          <internalNodes>
            0 -1 486 -1.7911696340888739e-03</internalNodes>
          <leafValues>
            -8.5173302888870239e-01 4.8570293933153152e-02</leafValues></_>
        <_>
          <internalNodes>
            0 -1 331 -2.7836896479129791e-02</internalNodes>
          <leafValues>
            3.1405320763587952e-01 -1.3830672204494476e-01</leafValues></_></weakClassifiers></_>
    <!-- stage 4 -->
    <_>
      <maxWeakCount>32</maxWeakCount>
      <stageThreshold>-1.9826066493988037e+00</stageThreshold>
      <weakClassifiers>
        <_>
          <internalNodes>
            0 -1 392 2.1974164992570877e-02</internalNodes>
          <leafValues>
            -7.7501350641250610e-01 -1.7014925181865692e-01</leafValues></_>
        <_>
          <internalNodes>
            0 -1 373 -2.4090479128062725e-03</internalNodes>
          <leafValues>
            9.9264577031135559e-02 -3.6141684651374817e-01</leafValues></_>
        <_>
          <internalNodes>
            0 -1 245 5.8258171193301678e-03</internalNodes>
          <leafValues>
            -1.5387834608554840e-01 3.0312722921371460e-01</leafValues></_>
        <_>
          <internalNodes>
            0 -1 274 -2.6615392416715622e-03</internalNodes>
          <leafValues>
            3.2608008384704590e-01 -1.3209100067615509e-01</leafValues></_>
        <_>
          <internalNodes>
            0 -1 0 2.7120485901832581e-04</internalNodes>
          <leafValues>
            1.1447278410196304e-01 -3.7720543146133423e-01</leafValues></_>
        <_>
          <internalNodes>
            0 -1 351 -3.2488908618688583e-03</internalNodes>
          <leafValues>
            2.9656779766082764e-01 -1.2997953593730927e-01</leafValues></_>
        <_>
          <internalNodes>
            0 -1 140 -1.4389644376933575e-02</internalNodes>
          <leafValues>
            3.1778961420059204e-01 -1.2074863165616989e-01</leafValues></_>
        <_>
          <internalNodes>
            0 -1 186 9.1056106612086296e-03</internalNodes>
          <leafValues>
            -1.3476659357547760e-01 3.0852752923965454e-01</leafValues></_>
        <_>
          <internalNodes>
            0 -1 354 -2.2019261959940195e-03</internalNodes>
          <leafValues>
            -8.5030370950698853e-01 4.1161179542541504e-02</leafValues></_>
        <_>
          <internalNodes>
            0 -1 47 -7.7088207035558298e-06</internalNodes>
          <leafValues>
            2.0148338377475739e-01 -1.8570059537887573e-01</leafValues></_>
        <_>
          <internalNodes>
            0 -1 6 -1.5065676416270435e-04</internalNodes>
          <leafValues>
            -3.9186644554138184e-01 9.4635814428329468e-02</leafValues></_>
        <_>
          <internalNodes>
            0 -1 458 -5.0176971126347780e-04</internalNodes>
          <leafValues>
            4.9203589558601379e-01 -6.4245127141475677e-02</leafValues></_>
        <_>
          <internalNodes>
            0 -1 356 8.9223380200564861e-04</internalNodes>
          <leafValues>
            6.5778449177742004e-02 -6.0837805271148682e-01</leafValues></_>
        <_>
          <internalNodes>
            0 -1 308 -5.3074210882186890e-04</internalNodes>
          <leafValues>
            2.7084895968437195e-01 -1.4865505695343018e-01</leafValues></_>
        <_>
          <internalNodes>
            0 -1 344 2.4020719865802675e-04</internalNodes>
          <leafValues>
            -1.2116625159978867e-01 2.9304596781730652e-01</leafValues></_>
        <_>
          <internalNodes>
            0 -1 26 7.0298515493050218e-04</internalNodes>
          <leafValues>
            7.6492100954055786e-02 -5.3218656778335571e-01</leafValues></_>
        <_>
          <internalNodes>
            0 -1 84 1.9874991849064827e-02</internalNodes>
          <leafValues>
            -1.2468699365854263e-01 3.2300877571105957e-01</leafValues></_>
        <_>
          <internalNodes>
            0 -1 77 -2.8761483728885651e-02</internalNodes>
          <leafValues>
            3.7129262089729309e-01 -1.1301875859498978e-01</leafValues></_>
        <_>
          <internalNodes>
            0 -1 27 3.0425258446484804e-03</internalNodes>
          <leafValues>
            8.2863725721836090e-02 -4.5606157183647156e-01</leafValues></_>
        <_>
          <internalNodes>
            0 -1 338 1.4395939651876688e-03</internalNodes>
          <leafValues>
            -1.1253989487886429e-01 3.6500397324562073e-01</leafValues></_>
        <_>
          <internalNodes>
            0 -1 296 -8.7451022118330002e-03</internalNodes>
          <leafValues>
            -7.5689542293548584e-01 5.2801068872213364e-02</leafValues></_>
        <_>
          <internalNodes>
            0 -1 276 -1.6706066671758890e-03</internalNodes>
          <leafValues>
            -7.0379739999771118e-01 4.5235767960548401e-02</leafValues></_>
        <_>
          <internalNodes>
            0 -1 420 -4.4376280857250094e-04</internalNodes>
          <leafValues>
            5.7178586721420288e-01 -7.2990916669368744e-02</leafValues></_>
        <_>
          <internalNodes>
            0 -1 215 3.4965820610523224e-02</internalNodes>
          <leafValues>
            -7.3786333203315735e-02 4.3746402859687805e-01</leafValues></_>
        <_>
          <internalNodes>
            0 -1 193 -1.2028671335428953e-03</internalNodes>
          <leafValues>
            3.7035283446311951e-01 -9.7461886703968048e-02</leafValues></_>
        <_>
          <internalNodes>
            0 -1 87 1.2502335011959076e-03</internalNodes>
          <leafValues>
            6.9155603647232056e-02 -5.8693748712539673e-01</leafValues></_>
        <_>
          <internalNodes>
            0 -1 200 3.2374961301684380e-03</internalNodes>
          <leafValues>
            -1.6724734008312225e-01 2.3417043685913086e-01</leafValues></_>
        <_>
          <internalNodes>
            0 -1 246 5.9976495802402496e-02</internalNodes>
          <leafValues>
            -1.1294377595186234e-01 3.3206203579902649e-01</leafValues></_>
        <_>
          <internalNodes>
            0 -1 476 -2.1822373382747173e-03</internalNodes>
          <leafValues>
            3.1946834921836853e-01 -1.1744942516088486e-01</leafValues></_>
        <_>
          <internalNodes>
            0 -1 13 8.2061340799555182e-04</internalNodes>
          <leafValues>
            7.5768060982227325e-02 -5.1784259080886841e-01</leafValues></_>
        <_>
          <internalNodes>
            0 -1 191 -9.1247529780957848e-06</internalNodes>
          <leafValues>
            1.7557650804519653e-01 -2.2103013098239899e-01</leafValues></_>
        <_>
          <internalNodes>
            0 -1 317 -4.8140867147594690e-04</internalNodes>
          <leafValues>
            4.1329845786094666e-01 -1.0073290020227432e-01</leafValues></_></weakClassifiers></_>
    <!-- stage 5 -->
    <_>
      <maxWeakCount>37</maxWeakCount>
      <stageThreshold>-1.8374253511428833e+00</stageThreshold>
      <weakClassifiers>
        <_>
          <internalNodes>
            0 -1 431 5.0288130296394229e-04</internalNodes>
          <leafValues>
            -7.6506024599075317e-01 -1.5966387093067169e-01</leafValues></_>
        <_>
          <internalNodes>
            0 -1 270 8.3862512838095427e-04</internalNodes>
          <leafValues>
            -2.9663392901420593e-01 3.3874258399009705e-01</leafValues></_>
        <_>
          <internalNodes>
            0 -1 222 7.1050510741770267e-03</internalNodes>
          <leafValues>
            -1.7033222317695618e-01 2.5419417023658752e-01</leafValues></_>
        <_>
          <internalNodes>
            0 -1 405 5.2614684682339430e-04</internalNodes>
          <leafValues>
            -5.2103061228990555e-02 6.6372096538543701e-01</leafValues></_>
        <_>
          <internalNodes>
            0 -1 438 6.1334040947258472e-04</internalNodes>
          <leafValues>
            -5.2541833370923996e-02 5.8539146184921265e-01</leafValues></_>
        <_>
          <internalNodes>
            0 -1 190 -9.5658652484416962e-02</internalNodes>
          <leafValues>
            5.8593106269836426e-01 -5.7458244264125824e-02</leafValues></_>
        <_>
          <internalNodes>
            0 -1 293 -6.9397366605699062e-03</internalNodes>
          <leafValues>
            -6.7694211006164551e-01 5.8980949223041534e-02</leafValues></_>
        <_>
          <internalNodes>
            0 -1 275 -1.9388357177376747e-03</internalNodes>
          <leafValues>
            3.0863380432128906e-01 -1.1177838593721390e-01</leafValues></_>
        <_>
          <internalNodes>
            0 -1 264 3.3575647976249456e-03</internalNodes>
          <leafValues>
            -1.1772426962852478e-01 3.2276988029479980e-01</leafValues></_>
        <_>
          <internalNodes>
            0 -1 131 -6.6599092679098248e-04</internalNodes>
          <leafValues>
            2.9083284735679626e-01 -1.2489688396453857e-01</leafValues></_>
        <_>
          <internalNodes>
            0 -1 70 6.9541321136057377e-04</internalNodes>
          <leafValues>
            9.5184385776519775e-02 -3.9847838878631592e-01</leafValues></_>
        <_>
          <internalNodes>
            0 -1 456 -6.7284451797604561e-03</internalNodes>
          <leafValues>
            3.4338584542274475e-01 -9.4773389399051666e-02</leafValues></_>
        <_>
          <internalNodes>
            0 -1 463 6.2154103070497513e-03</internalNodes>
          <leafValues>
            -1.2265532463788986e-01 3.7611392140388489e-01</leafValues></_>
        <_>
          <internalNodes>
            0 -1 500 -4.4051166623830795e-03</internalNodes>
          <leafValues>
            -6.5495556592941284e-01 4.9743656069040298e-02</leafValues></_>
        <_>
          <internalNodes>
            0 -1 96 2.9836319386959076e-02</internalNodes>
          <leafValues>
            -8.3690091967582703e-02 3.9949354529380798e-01</leafValues></_>
        <_>
          <internalNodes>
            0 -1 94 -7.5682046372094192e-06</internalNodes>
          <leafValues>
            1.9991938769817352e-01 -1.9868882000446320e-01</leafValues></_>
        <_>
          <internalNodes>
            0 -1 167 -7.4400668963789940e-03</internalNodes>
          <leafValues>
            3.0218788981437683e-01 -1.1432430148124695e-01</leafValues></_>
        <_>
          <internalNodes>
            0 -1 414 1.6363335773348808e-02</internalNodes>
          <leafValues>
            -1.1621809005737305e-01 3.2292690873146057e-01</leafValues></_>
        <_>
          <internalNodes>
            0 -1 9 1.4830653090029955e-03</internalNodes>
          <leafValues>
            7.3338925838470459e-02 -5.2779537439346313e-01</leafValues></_>
        <_>
          <internalNodes>
            0 -1 471 1.6821254044771194e-02</internalNodes>
          <leafValues>
            -1.2402806431055069e-01 2.9995065927505493e-01</leafValues></_>
        <_>
          <internalNodes>
            0 -1 515 1.6558166593313217e-02</internalNodes>
          <leafValues>
            8.5876755416393280e-02 -5.5285888910293579e-01</leafValues></_>
        <_>
          <internalNodes>
            0 -1 513 3.4150591818615794e-04</internalNodes>
          <leafValues>
            6.5401613712310791e-02 -4.8037680983543396e-01</leafValues></_>
        <_>
          <internalNodes>
            0 -1 383 5.5791775230318308e-04</internalNodes>
          <leafValues>
            -9.1061800718307495e-02 4.2429709434509277e-01</leafValues></_>
        <_>
          <internalNodes>
            0 -1 277 -5.8942809700965881e-03</internalNodes>
          <leafValues>
            -5.6613516807556152e-01 6.7337416112422943e-02</leafValues></_>
        <_>
          <internalNodes>
            0 -1 122 -7.8743696212768555e-03</internalNodes>
          <leafValues>
            -5.3568279743194580e-01 6.1370961368083954e-02</leafValues></_>
        <_>
          <internalNodes>
            0 -1 506 -5.4034695494920015e-04</internalNodes>
          <leafValues>
            2.4505253136157990e-01 -1.4910593628883362e-01</leafValues></_>
        <_>
          <internalNodes>
            0 -1 347 -2.8682104311883450e-03</internalNodes>
          <leafValues>
            2.4070014059543610e-01 -1.4633892476558685e-01</leafValues></_>
        <_>
          <internalNodes>
            0 -1 474 5.2932219114154577e-04</internalNodes>
          <leafValues>
            8.5928224027156830e-02 -4.1805997490882874e-01</leafValues></_>
        <_>
          <internalNodes>
            0 -1 223 -6.2370553612709045e-02</internalNodes>
          <leafValues>
            4.8173153400421143e-01 -8.2086451351642609e-02</leafValues></_>
        <_>
          <internalNodes>
            0 -1 179 5.2280216477811337e-03</internalNodes>
          <leafValues>
            -1.3987547159194946e-01 2.5700709223747253e-01</leafValues></_>
        <_>
          <internalNodes>
            0 -1 239 -4.4802427291870117e-03</internalNodes>
          <leafValues>
            3.1682807207107544e-01 -1.5211735665798187e-01</leafValues></_>
        <_>
          <internalNodes>
            0 -1 311 -5.4093012586236000e-03</internalNodes>
          <leafValues>
            -5.6145143508911133e-01 6.8654000759124756e-02</leafValues></_>
        <_>
          <internalNodes>
            0 -1 519 1.2429791968315840e-04</internalNodes>
          <leafValues>
            7.4847303330898285e-02 -4.5519140362739563e-01</leafValues></_>
        <_>
          <internalNodes>
            0 -1 192 -1.5592624549753964e-04</internalNodes>
          <leafValues>
            3.4306800365447998e-01 -1.0907354950904846e-01</leafValues></_>
        <_>
          <internalNodes>
            0 -1 34 9.9924334790557623e-04</internalNodes>
          <leafValues>
            8.1899344921112061e-02 -4.5012027025222778e-01</leafValues></_>
        <_>
          <internalNodes>
            0 -1 129 -8.7776710279285908e-04</internalNodes>
          <leafValues>
            3.0010586977005005e-01 -1.1361816525459290e-01</leafValues></_>
        <_>
          <internalNodes>
            0 -1 510 3.9203455344249960e-06</internalNodes>
          <leafValues>
            -1.8925981223583221e-01 2.0818601548671722e-01</leafValues></_></weakClassifiers></_>
    <!-- stage 6 -->
    <_>
      <maxWeakCount>42</maxWeakCount>
      <stageThreshold>-2.0665702819824219e+00</stageThreshold>
      <weakClassifiers>
        <_>
          <internalNodes>
            0 -1 442 -4.5237295329570770e-02</internalNodes>
          <leafValues>
            1.1688311398029327e-01 -7.5193798542022705e-01</leafValues></_>
        <_>
          <internalNodes>
            0 -1 255 -4.2337542399764061e-03</internalNodes>
          <leafValues>
            8.4870077669620514e-02 -3.3317476511001587e-01</leafValues></_>
        <_>
          <internalNodes>
            0 -1 238 1.4240972697734833e-02</internalNodes>
          <leafValues>
            -1.1327488720417023e-01 3.5262912511825562e-01</leafValues></_>
        <_>
          <internalNodes>
            0 -1 319 -4.6656969934701920e-03</internalNodes>
          <leafValues>
            1.8760216236114502e-01 -2.0264172554016113e-01</leafValues></_>
        <_>
          <internalNodes>
            0 -1 505 -3.5122060216963291e-04</internalNodes>
          <leafValues>
            -3.8693758845329285e-01 9.6921637654304504e-02</leafValues></_>
        <_>
          <internalNodes>
            0 -1 160 2.1276634652167559e-03</internalNodes>
          <leafValues>
            -1.8091474473476410e-01 1.9633212685585022e-01</leafValues></_>
        <_>
          <internalNodes>
            0 -1 159 -9.1960938880220056e-04</internalNodes>
          <leafValues>
            4.7513443231582642e-01 -4.9064721912145615e-02</leafValues></_>
        <_>
          <internalNodes>
            0 -1 494 9.6989450976252556e-03</internalNodes>
          <leafValues>
            -1.0520786046981812e-01 3.3836552500724792e-01</leafValues></_>
        <_>
          <internalNodes>
            0 -1 358 1.2320124078541994e-03</internalNodes>
          <leafValues>
            -1.4097817242145538e-01 2.8047719597816467e-01</leafValues></_>
        <_>
          <internalNodes>
            0 -1 67 6.0952239437028766e-04</internalNodes>
          <leafValues>
            1.0784494876861572e-01 -4.1597071290016174e-01</leafValues></_>
        <_>
          <internalNodes>
            0 -1 387 -2.6539417449384928e-03</internalNodes>
          <leafValues>
            1.7140492796897888e-01 -2.1961680054664612e-01</leafValues></_>
        <_>
          <internalNodes>
            0 -1 424 1.8357483670115471e-02</internalNodes>
          <leafValues>
            -9.4393596053123474e-02 4.0869438648223877e-01</leafValues></_>
        <_>
          <internalNodes>
            0 -1 352 -2.2829174995422363e-03</internalNodes>
          <leafValues>
            3.9280042052268982e-01 -1.0292782634496689e-01</leafValues></_>
        <_>
          <internalNodes>
            0 -1 342 -4.6943686902523041e-03</internalNodes>
          <leafValues>
            -7.0708400011062622e-01 5.3570982068777084e-02</leafValues></_>
        <_>
          <internalNodes>
            0 -1 173 -8.1509473966434598e-04</internalNodes>
          <leafValues>
            2.1245993673801422e-01 -1.7251254618167877e-01</leafValues></_>
        <_>
          <internalNodes>
            0 -1 422 -6.4052175730466843e-04</internalNodes>
          <leafValues>
            -4.8775169253349304e-01 7.1074143052101135e-02</leafValues></_>
        <_>
          <internalNodes>
            0 -1 219 -2.9225381091237068e-02</internalNodes>
          <leafValues>
            4.9406236410140991e-01 -6.8770542740821838e-02</leafValues></_>
        <_>
          <internalNodes>
            0 -1 511 9.2404188762884587e-06</internalNodes>
          <leafValues>
            -1.7560508847236633e-01 1.9587869942188263e-01</leafValues></_>
        <_>
          <internalNodes>
            0 -1 462 7.5914538465440273e-03</internalNodes>
          <leafValues>
            -1.3843953609466553e-01 2.6391229033470154e-01</leafValues></_>
        <_>
          <internalNodes>
            0 -1 504 2.2579889628104866e-04</internalNodes>
          <leafValues>
            9.7350344061851501e-02 -3.8220196962356567e-01</leafValues></_>
        <_>
          <internalNodes>
            0 -1 48 -9.4127655029296875e-03</internalNodes>
          <leafValues>
            2.3705844581127167e-01 -1.4613910019397736e-01</leafValues></_>
        <_>
          <internalNodes>
            0 -1 97 1.5573296695947647e-03</internalNodes>
          <leafValues>
            -1.2300778925418854e-01 3.2524076104164124e-01</leafValues></_>
        <_>
          <internalNodes>
            0 -1 149 -3.5142694832757115e-04</internalNodes>
          <leafValues>
            -3.4259152412414551e-01 1.0616819560527802e-01</leafValues></_>
        <_>
          <internalNodes>
            0 -1 102 -1.9055236130952835e-02</internalNodes>
          <leafValues>
            2.1655404567718506e-01 -1.5575069189071655e-01</leafValues></_>
        <_>
          <internalNodes>
            0 -1 68 -8.1251468509435654e-04</internalNodes>
          <leafValues>
            -4.5582830905914307e-01 7.4549876153469086e-02</leafValues></_>
        <_>
          <internalNodes>
            0 -1 195 -1.7365650273859501e-03</internalNodes>
          <leafValues>
            3.9090061187744141e-01 -9.6430495381355286e-02</leafValues></_>
        <_>
          <internalNodes>
            0 -1 195 8.2853424828499556e-04</internalNodes>
          <leafValues>
            -1.0896304249763489e-01 2.7766132354736328e-01</leafValues></_>
        <_>
          <internalNodes>
            0 -1 151 -1.7182091251015663e-03</internalNodes>
          <leafValues>
            2.8676870465278625e-01 -1.1210539191961288e-01</leafValues></_>
        <_>
          <internalNodes>
            0 -1 307 7.1249977918341756e-04</internalNodes>
          <leafValues>
            -7.7638529241085052e-02 4.7007215023040771e-01</leafValues></_>
        <_>
          <internalNodes>
            0 -1 8 5.8390130288898945e-04</internalNodes>
          <leafValues>
            9.4269916415214539e-02 -4.1012385487556458e-01</leafValues></_>
        <_>
          <internalNodes>
            0 -1 100 3.5670630633831024e-02</internalNodes>
          <leafValues>
            -1.4020386338233948e-01 2.4944052100181580e-01</leafValues></_>
        <_>
          <internalNodes>
            0 -1 174 -2.4587046355009079e-02</internalNodes>
          <leafValues>
            3.4008702635765076e-01 -1.2497781962156296e-01</leafValues></_>
        <_>
          <internalNodes>
            0 -1 346 -2.5466715451329947e-03</internalNodes>
          <leafValues>
            3.1121078133583069e-01 -1.1372932791709900e-01</leafValues></_>
        <_>
          <internalNodes>
            0 -1 443 -8.8327964767813683e-03</internalNodes>
          <leafValues>
            -8.6911350488662720e-01 4.0524642914533615e-02</leafValues></_>
        <_>
          <internalNodes>
            0 -1 401 -3.7687593139708042e-03</internalNodes>
          <leafValues>
            -6.1746293306350708e-01 4.0761541575193405e-02</leafValues></_>
        <_>
          <internalNodes>
            0 -1 445 7.6763990364270285e-06</internalNodes>
          <leafValues>
            -1.7453873157501221e-01 1.7763453722000122e-01</leafValues></_>
        <_>
          <internalNodes>
            0 -1 365 6.1567969620227814e-02</internalNodes>
          <leafValues>
            3.9398465305566788e-02 -7.7155113220214844e-01</leafValues></_>
        <_>
          <internalNodes>
            0 -1 470 7.7105669333832338e-06</internalNodes>
          <leafValues>
            -1.8230746686458588e-01 1.7948792874813080e-01</leafValues></_>
        <_>
          <internalNodes>
            0 -1 155 -4.8324966337531805e-04</internalNodes>
          <leafValues>
            -3.8428828120231628e-01 8.2206971943378448e-02</leafValues></_>
        <_>
          <internalNodes>
            0 -1 299 -1.9769384525716305e-03</internalNodes>
          <leafValues>
            -7.1361994743347168e-01 3.8992408663034439e-02</leafValues></_>
        <_>
          <internalNodes>
            0 -1 429 -1.2056914856657386e-03</internalNodes>
          <leafValues>
            1.9701863825321198e-01 -1.6628089547157288e-01</leafValues></_>
        <_>
          <internalNodes>
            0 -1 479 -2.1569870412349701e-02</internalNodes>
          <leafValues>
            4.4335573911666870e-01 -7.8376613557338715e-02</leafValues></_></weakClassifiers></_>
    <!-- stage 7 -->
    <_>
      <maxWeakCount>34</maxWeakCount>
      <stageThreshold>-1.7936652898788452e+00</stageThreshold>
      <weakClassifiers>
        <_>
          <internalNodes>
            0 -1 378 -1.3871002011001110e-03</internalNodes>
          <leafValues>
            -4.3529412150382996e-01 -7.8046905994415283e-01</leafValues></_>
        <_>
          <internalNodes>
            0 -1 360 -2.4641023483127356e-03</internalNodes>
          <leafValues>
            1.8465057015419006e-01 -3.0962026119232178e-01</leafValues></_>
        <_>
          <internalNodes>
            0 -1 95 2.2613923996686935e-02</internalNodes>
          <leafValues>
            -1.2678693234920502e-01 2.9022511839866638e-01</leafValues></_>
        <_>
          <internalNodes>
            0 -1 115 -7.6931872172281146e-04</internalNodes>
          <leafValues>
            1.9153596460819244e-01 -1.8515540659427643e-01</leafValues></_>
        <_>
          <internalNodes>
            0 -1 32 -1.8661395879462361e-03</internalNodes>
          <leafValues>
            -8.0659252405166626e-01 4.2710524052381516e-02</leafValues></_>
        <_>
          <internalNodes>
            0 -1 385 8.1435812171548605e-04</internalNodes>
          <leafValues>
            -6.1996754258871078e-02 5.1883739233016968e-01</leafValues></_>
        <_>
          <internalNodes>
            0 -1 318 1.3814920384902507e-04</internalNodes>
          <leafValues>
            1.1227869987487793e-01 -2.9770687222480774e-01</leafValues></_>
        <_>
          <internalNodes>
            0 -1 484 5.0316816195845604e-03</internalNodes>
          <leafValues>
            -9.2478387057781219e-02 3.0710688233375549e-01</leafValues></_>
        <_>
          <internalNodes>
            0 -1 3 1.2357573723420501e-04</internalNodes>
          <leafValues>
            7.9722650349140167e-02 -3.9294505119323730e-01</leafValues></_>
        <_>
          <internalNodes>
            0 -1 503 2.2090879792813212e-04</internalNodes>
          <leafValues>
            1.0088142007589340e-01 -3.5392168164253235e-01</leafValues></_>
        <_>
          <internalNodes>
            0 -1 207 2.0389962010085583e-03</internalNodes>
          <leafValues>
            -1.4604254066944122e-01 2.3877386748790741e-01</leafValues></_>
        <_>
          <internalNodes>
            0 -1 188 -3.3646000083535910e-03</internalNodes>
          <leafValues>
            2.4593314528465271e-01 -1.6415588557720184e-01</leafValues></_>
        <_>
          <internalNodes>
            0 -1 258 9.2089176177978516e-06</internalNodes>
          <leafValues>
            -1.8965485692024231e-01 1.8360987305641174e-01</leafValues></_>
        <_>
          <internalNodes>
            0 -1 36 5.7280232431367040e-04</internalNodes>
          <leafValues>
            8.5326537489891052e-02 -3.7403661012649536e-01</leafValues></_>
        <_>
          <internalNodes>
            0 -1 50 1.6281176358461380e-02</internalNodes>
          <leafValues>
            -9.1906391084194183e-02 3.5239970684051514e-01</leafValues></_>
        <_>
          <internalNodes>
            0 -1 4 -1.3641074765473604e-03</internalNodes>
          <leafValues>
            1.7803815007209778e-01 -2.0370109379291534e-01</leafValues></_>
        <_>
          <internalNodes>
            0 -1 123 3.9361566305160522e-03</internalNodes>
          <leafValues>
            -1.4320319890975952e-01 2.4161131680011749e-01</leafValues></_>
        <_>
          <internalNodes>
            0 -1 281 1.3980699703097343e-02</internalNodes>
          <leafValues>
            -1.1851322650909424e-01 2.7138373255729675e-01</leafValues></_>
        <_>
          <internalNodes>
            0 -1 206 -4.0359748527407646e-03</internalNodes>
          <leafValues>
            2.5328791141510010e-01 -1.3557554781436920e-01</leafValues></_>
        <_>
          <internalNodes>
            0 -1 204 -7.0225039962679148e-04</internalNodes>
          <leafValues>
            -3.2925420999526978e-01 1.0164491087198257e-01</leafValues></_>
        <_>
          <internalNodes>
            0 -1 304 -9.6732089295983315e-03</internalNodes>
          <leafValues>
            -7.8907650709152222e-01 3.5663224756717682e-02</leafValues></_>
        <_>
          <internalNodes>
            0 -1 306 -7.8645139001309872e-04</internalNodes>
          <leafValues>
            3.1763070821762085e-01 -1.1141914874315262e-01</leafValues></_>
        <_>
          <internalNodes>
            0 -1 325 8.1189151387661695e-04</internalNodes>
          <leafValues>
            6.3986703753471375e-02 -5.1362025737762451e-01</leafValues></_>
        <_>
          <internalNodes>
            0 -1 225 -1.1121730494778603e-04</internalNodes>
          <leafValues>
            2.8086543083190918e-01 -1.1361990123987198e-01</leafValues></_>
        <_>
          <internalNodes>
            0 -1 89 -1.9665895961225033e-03</internalNodes>
          <leafValues>
            2.4549324810504913e-01 -1.2988586723804474e-01</leafValues></_>
        <_>
          <internalNodes>
            0 -1 91 2.6988753234036267e-04</internalNodes>
          <leafValues>
            8.6966708302497864e-02 -4.0642496943473816e-01</leafValues></_>
        <_>
          <internalNodes>
            0 -1 419 4.7605132567696273e-04</internalNodes>
          <leafValues>
            -6.6399894654750824e-02 6.0249584913253784e-01</leafValues></_>
        <_>
          <internalNodes>
            0 -1 65 -1.8570772372186184e-03</internalNodes>
          <leafValues>
            -7.5255542993545532e-01 5.2986778318881989e-02</leafValues></_>
        <_>
          <internalNodes>
            0 -1 419 -2.6997548411600292e-04</internalNodes>
          <leafValues>
            4.2404052615165710e-01 -8.9707560837268829e-02</leafValues></_>
        <_>
          <internalNodes>
            0 -1 461 -1.0668440721929073e-02</internalNodes>
          <leafValues>
            2.8444030880928040e-01 -1.1296110600233078e-01</leafValues></_>
        <_>
          <internalNodes>
            0 -1 403 -2.2869776003062725e-03</internalNodes>
          <leafValues>
            2.0890292525291443e-01 -1.6612555086612701e-01</leafValues></_>
        <_>
          <internalNodes>
            0 -1 147 -7.4469835453783162e-06</internalNodes>
          <leafValues>
            1.5808765590190887e-01 -2.1086858212947845e-01</leafValues></_>
        <_>
          <internalNodes>
            0 -1 339 9.1354340838734061e-06</internalNodes>
          <leafValues>
            -1.7882969975471497e-01 1.8878254294395447e-01</leafValues></_>
        <_>
          <internalNodes>
            0 -1 216 4.6872296370565891e-03</internalNodes>
          <leafValues>
            -1.2972550094127655e-01 3.3132362365722656e-01</leafValues></_></weakClassifiers></_>
    <!-- stage 8 -->
    <_>
      <maxWeakCount>48</maxWeakCount>
      <stageThreshold>-2.0053386688232422e+00</stageThreshold>
      <weakClassifiers>
        <_>
          <internalNodes>
            0 -1 426 -5.3401710465550423e-04</internalNodes>
          <leafValues>
            -1.7209301888942719e-01 -7.6213163137435913e-01</leafValues></_>
        <_>
          <internalNodes>
            0 -1 359 1.6199041157960892e-02</internalNodes>
          <leafValues>
            -3.3913826942443848e-01 9.2081509530544281e-02</leafValues></_>
        <_>
          <internalNodes>
            0 -1 454 -5.7598426938056946e-03</internalNodes>
          <leafValues>
            -6.0927289724349976e-01 4.8252433538436890e-02</leafValues></_>
        <_>
          <internalNodes>
            0 -1 454 -5.7468637824058533e-03</internalNodes>
          <leafValues>
            9.8430413007736206e-01 -1.6180303646251559e-03</leafValues></_>
        <_>
          <internalNodes>
            0 -1 454 -5.5911792442202568e-03</internalNodes>
          <leafValues>
            -7.8901284933090210e-01 2.1051065996289253e-03</leafValues></_>
        <_>
          <internalNodes>
            0 -1 433 8.3320029079914093e-03</internalNodes>
          <leafValues>
            -1.2659908831119537e-01 2.4086329340934753e-01</leafValues></_>
        <_>
          <internalNodes>
            0 -1 111 2.0240055024623871e-01</internalNodes>
          <leafValues>
            4.2525086551904678e-02 -7.3321157693862915e-01</leafValues></_>
        <_>
          <internalNodes>
            0 -1 53 2.1127651631832123e-01</internalNodes>
          <leafValues>
            3.3962585031986237e-02 -6.7120319604873657e-01</leafValues></_>
        <_>
          <internalNodes>
            0 -1 514 -1.5061817248351872e-04</internalNodes>
          <leafValues>
            -3.3062303066253662e-01 1.1326982080936432e-01</leafValues></_>
        <_>
          <internalNodes>
            0 -1 314 -5.6676052510738373e-02</internalNodes>
          <leafValues>
            -5.8123123645782471e-01 5.3891763091087341e-02</leafValues></_>
        <_>
          <internalNodes>
            0 -1 468 1.2218631803989410e-02</internalNodes>
          <leafValues>
            -9.1355219483375549e-02 4.1772243380546570e-01</leafValues></_>
        <_>
          <internalNodes>
            0 -1 235 -7.1342051029205322e-02</internalNodes>
          <leafValues>
            5.2546262741088867e-01 -6.0649827122688293e-02</leafValues></_>
        <_>
          <internalNodes>
            0 -1 457 -6.8217613734304905e-03</internalNodes>
          <leafValues>
            -6.7432910203933716e-01 5.1408234983682632e-02</leafValues></_>
        <_>
          <internalNodes>
            0 -1 477 5.7799615897238255e-03</internalNodes>
          <leafValues>
            -9.2026874423027039e-02 3.8673529028892517e-01</leafValues></_>
        <_>
          <internalNodes>
            0 -1 448 6.1748651787638664e-03</internalNodes>
          <leafValues>
            4.7966185957193375e-02 -7.2002863883972168e-01</leafValues></_>
        <_>
          <internalNodes>
            0 -1 244 6.9121941924095154e-02</internalNodes>
          <leafValues>
            -1.1881784349679947e-01 3.1059336662292480e-01</leafValues></_>
        <_>
          <internalNodes>
            0 -1 382 1.4671537792310119e-04</internalNodes>
          <leafValues>
            -1.0087185353040695e-01 3.1755027174949646e-01</leafValues></_>
        <_>
          <internalNodes>
            0 -1 201 -6.1964909546077251e-03</internalNodes>
          <leafValues>
            2.6524081826210022e-01 -1.2489786744117737e-01</leafValues></_>
        <_>
          <internalNodes>
            0 -1 180 1.4714164659380913e-02</internalNodes>
          <leafValues>
            -7.4272297322750092e-02 3.8799098134040833e-01</leafValues></_>
        <_>
          <internalNodes>
            0 -1 372 3.7057802081108093e-02</internalNodes>
          <leafValues>
            4.2561288923025131e-02 -7.4220091104507446e-01</leafValues></_>
        <_>
          <internalNodes>
            0 -1 142 4.7031536698341370e-02</internalNodes>
          <leafValues>
            -9.0831764042377472e-02 4.1234058141708374e-01</leafValues></_>
        <_>
          <internalNodes>
            0 -1 12 1.0434869676828384e-02</internalNodes>
          <leafValues>
            -1.0388433188199997e-01 2.9202982783317566e-01</leafValues></_>
        <_>
          <internalNodes>
            0 -1 228 -1.4524147845804691e-02</internalNodes>
          <leafValues>
            3.1243497133255005e-01 -1.1034172028303146e-01</leafValues></_>
        <_>
          <internalNodes>
            0 -1 20 -2.8642660379409790e-01</internalNodes>
          <leafValues>
            -7.0551699399948120e-01 4.5480199158191681e-02</leafValues></_>
        <_>
          <internalNodes>
            0 -1 301 9.9158857483416796e-04</internalNodes>
          <leafValues>
            8.4435343742370605e-02 -3.6437711119651794e-01</leafValues></_>
        <_>
          <internalNodes>
            0 -1 252 2.3431202862411737e-03</internalNodes>
          <leafValues>
            -1.8177987635135651e-01 2.2295172512531281e-01</leafValues></_>
        <_>
          <internalNodes>
            0 -1 254 -7.4824783951044083e-04</internalNodes>
          <leafValues>
            2.0486006140708923e-01 -1.6747182607650757e-01</leafValues></_>
        <_>
          <internalNodes>
            0 -1 105 1.9456027075648308e-03</internalNodes>
          <leafValues>
            5.1010288298130035e-02 -6.1310958862304688e-01</leafValues></_>
        <_>
          <internalNodes>
            0 -1 521 -3.2346472144126892e-03</internalNodes>
          <leafValues>
            -6.0430121421813965e-01 4.9293730407953262e-02</leafValues></_>
        <_>
          <internalNodes>
            0 -1 260 -1.4281689072959125e-04</internalNodes>
          <leafValues>
            3.3612743020057678e-01 -1.0651458799839020e-01</leafValues></_>
        <_>
          <internalNodes>
            0 -1 413 1.3913080329075456e-03</internalNodes>
          <leafValues>
            -3.8555089384317398e-02 7.7490937709808350e-01</leafValues></_>
        <_>
          <internalNodes>
            0 -1 520 -1.5921867452561855e-04</internalNodes>
          <leafValues>
            -3.8447514176368713e-01 8.6711190640926361e-02</leafValues></_>
        <_>
          <internalNodes>
            0 -1 499 -2.4487944319844246e-03</internalNodes>
          <leafValues>
            4.6286195516586304e-01 -7.7327936887741089e-02</leafValues></_>
        <_>
          <internalNodes>
            0 -1 161 4.3323787394911051e-04</internalNodes>
          <leafValues>
            -1.6646492481231689e-01 2.0523616671562195e-01</leafValues></_>
        <_>
          <internalNodes>
            0 -1 386 1.9331777002662420e-04</internalNodes>
          <leafValues>
            -9.4710834324359894e-02 3.5057219862937927e-01</leafValues></_>
        <_>
          <internalNodes>
            0 -1 92 1.5188039105851203e-04</internalNodes>
          <leafValues>
            9.7080394625663757e-02 -3.6551609635353088e-01</leafValues></_>
        <_>
          <internalNodes>
            0 -1 483 2.2586880251765251e-02</internalNodes>
          <leafValues>
            -7.3038473725318909e-02 4.7769090533256531e-01</leafValues></_>
        <_>
          <internalNodes>
            0 -1 355 -7.7668242156505585e-03</internalNodes>
          <leafValues>
            -9.1067665815353394e-01 4.0535409003496170e-02</leafValues></_>
        <_>
          <internalNodes>
            0 -1 71 -1.9960626959800720e-03</internalNodes>
          <leafValues>
            1.9365420937538147e-01 -1.6382676362991333e-01</leafValues></_>
        <_>
          <internalNodes>
            0 -1 292 1.0988664813339710e-02</internalNodes>
          <leafValues>
            -1.2417607009410858e-01 2.5291454792022705e-01</leafValues></_>
        <_>
          <internalNodes>
            0 -1 290 2.2316271497402340e-04</internalNodes>
          <leafValues>
            -7.7521719038486481e-02 4.0997669100761414e-01</leafValues></_>
        <_>
          <internalNodes>
            0 -1 512 1.0143402032554150e-03</internalNodes>
          <leafValues>
            4.2325757443904877e-02 -7.8884583711624146e-01</leafValues></_>
        <_>
          <internalNodes>
            0 -1 250 -6.4361812546849251e-03</internalNodes>
          <leafValues>
            -4.7680059075355530e-01 5.8232668787240982e-02</leafValues></_>
        <_>
          <internalNodes>
            0 -1 406 -4.6175954048521817e-04</internalNodes>
          <leafValues>
            5.7803106307983398e-01 -6.4824573695659637e-02</leafValues></_>
        <_>
          <internalNodes>
            0 -1 221 5.1756482571363449e-02</internalNodes>
          <leafValues>
            -1.0263461619615555e-01 3.2172459363937378e-01</leafValues></_>
        <_>
          <internalNodes>
            0 -1 389 1.9960040226578712e-03</internalNodes>
          <leafValues>
            -1.0237815231084824e-01 3.5276916623115540e-01</leafValues></_>
        <_>
          <internalNodes>
            0 -1 345 9.7311858553439379e-04</internalNodes>
          <leafValues>
            -9.8657764494419098e-02 3.3503991365432739e-01</leafValues></_>
        <_>
          <internalNodes>
            0 -1 278 3.4720220137387514e-03</internalNodes>
          <leafValues>
            8.4822088479995728e-02 -3.9576113224029541e-01</leafValues></_></weakClassifiers></_>
    <!-- stage 9 -->
    <_>
      <maxWeakCount>33</maxWeakCount>
      <stageThreshold>-1.8149557113647461e+00</stageThreshold>
      <weakClassifiers>
        <_>
          <internalNodes>
            0 -1 415 -5.9363193577155471e-04</internalNodes>
          <leafValues>
            -5.8823529630899429e-02 -7.6085436344146729e-01</leafValues></_>
        <_>
          <internalNodes>
            0 -1 125 -1.9167516380548477e-02</internalNodes>
          <leafValues>
            2.9706782102584839e-01 -2.9106655716896057e-01</leafValues></_>
        <_>
          <internalNodes>
            0 -1 298 -7.3457002639770508e-02</internalNodes>
          <leafValues>
            -6.7401516437530518e-01 5.0961237400770187e-02</leafValues></_>
        <_>
          <internalNodes>
            0 -1 315 -6.8865478038787842e-02</internalNodes>
          <leafValues>
            -8.5488939285278320e-01 7.4991419911384583e-02</leafValues></_>
        <_>
          <internalNodes>
            0 -1 150 2.7882628142833710e-02</internalNodes>
          <leafValues>
            -1.1683517694473267e-01 4.5830938220024109e-01</leafValues></_>
        <_>
          <internalNodes>
            0 -1 273 -1.0161311365664005e-02</internalNodes>
          <leafValues>
            2.4043579399585724e-01 -1.4547787606716156e-01</leafValues></_>
        <_>
          <internalNodes>
            0 -1 348 -1.9730549305677414e-02</internalNodes>
          <leafValues>
            6.2230205535888672e-01 -8.6237259209156036e-02</leafValues></_>
        <_>
          <internalNodes>
            0 -1 412 2.6206211186945438e-03</internalNodes>
          <leafValues>
            -1.0274554044008255e-01 3.2969349622726440e-01</leafValues></_>
        <_>
          <internalNodes>
            0 -1 31 -1.9567829440347850e-04</internalNodes>
          <leafValues>
            1.9462524354457855e-01 -1.9028790295124054e-01</leafValues></_>
        <_>
          <internalNodes>
            0 -1 289 -4.8692937707528472e-04</internalNodes>
          <leafValues>
            5.6030601263046265e-01 -8.0986216664314270e-02</leafValues></_>
        <_>
          <internalNodes>
            0 -1 99 3.4792942460626364e-04</internalNodes>
          <leafValues>
            1.1016504466533661e-01 -3.1995454430580139e-01</leafValues></_>
        <_>
          <internalNodes>
            0 -1 44 -6.5424144268035889e-03</internalNodes>
          <leafValues>
            2.8320208191871643e-01 -1.3718339800834656e-01</leafValues></_>
        <_>
          <internalNodes>
            0 -1 113 -5.1597036421298981e-02</internalNodes>
          <leafValues>
            4.9238857626914978e-01 -7.9240553081035614e-02</leafValues></_>
        <_>
          <internalNodes>
            0 -1 366 9.2455855337902904e-04</internalNodes>
          <leafValues>
            -4.2363420128822327e-02 7.1546310186386108e-01</leafValues></_>
        <_>
          <internalNodes>
            0 -1 496 -4.2990024667233229e-05</internalNodes>
          <leafValues>
            1.8933963775634766e-01 -1.7095424234867096e-01</leafValues></_>
        <_>
          <internalNodes>
            0 -1 110 5.3628236055374146e-03</internalNodes>
          <leafValues>
            -9.8803050816059113e-02 3.1458121538162231e-01</leafValues></_>
        <_>
          <internalNodes>
            0 -1 178 8.5680258052889258e-06</internalNodes>
          <leafValues>
            -1.8096479773521423e-01 1.8156266212463379e-01</leafValues></_>
        <_>
          <internalNodes>
            0 -1 475 -8.1238858401775360e-03</internalNodes>
          <leafValues>
            3.6256143450737000e-01 -9.7114391624927521e-02</leafValues></_>
        <_>
          <internalNodes>
            0 -1 19 -4.4507015263661742e-04</internalNodes>
          <leafValues>
            -5.3724712133407593e-01 7.1259848773479462e-02</leafValues></_>
        <_>
          <internalNodes>
            0 -1 439 -3.8248780183494091e-03</internalNodes>
          <leafValues>
            2.2680138051509857e-01 -1.4175334572792053e-01</leafValues></_>
        <_>
          <internalNodes>
            0 -1 220 1.4543521404266357e-01</internalNodes>
          <leafValues>
            4.2789243161678314e-02 -8.1302875280380249e-01</leafValues></_>
        <_>
          <internalNodes>
            0 -1 498 -7.0152455009520054e-04</internalNodes>
          <leafValues>
            -4.6112728118896484e-01 6.0184262692928314e-02</leafValues></_>
        <_>
          <internalNodes>
            0 -1 418 1.0015500709414482e-02</internalNodes>
          <leafValues>
            -1.0718951374292374e-01 3.0306208133697510e-01</leafValues></_>
        <_>
          <internalNodes>
            0 -1 14 4.4572032988071442e-02</internalNodes>
          <leafValues>
            -1.1958357691764832e-01 2.7473533153533936e-01</leafValues></_>
        <_>
          <internalNodes>
            0 -1 243 4.1144508868455887e-03</internalNodes>
          <leafValues>
            -1.1376303434371948e-01 2.7874442934989929e-01</leafValues></_>
        <_>
          <internalNodes>
            0 -1 10 2.5630481541156769e-02</internalNodes>
          <leafValues>
            -8.1907227635383606e-02 3.6526495218276978e-01</leafValues></_>
        <_>
          <internalNodes>
            0 -1 21 1.2777361553162336e-03</internalNodes>
          <leafValues>
            -1.5769264101982117e-01 1.9402979314327240e-01</leafValues></_>
        <_>
          <internalNodes>
            0 -1 464 -5.0994153134524822e-03</internalNodes>
          <leafValues>
            2.0543004572391510e-01 -1.6143281757831573e-01</leafValues></_>
        <_>
          <internalNodes>
            0 -1 364 7.2065775748342276e-04</internalNodes>
          <leafValues>
            9.2488870024681091e-02 -3.7970420718193054e-01</leafValues></_>
        <_>
          <internalNodes>
            0 -1 83 -6.2510417774319649e-03</internalNodes>
          <leafValues>
            2.8366777300834656e-01 -1.1973518133163452e-01</leafValues></_>
        <_>
          <internalNodes>
            0 -1 35 -8.6465361528098583e-04</internalNodes>
          <leafValues>
            -4.8183441162109375e-01 7.2759672999382019e-02</leafValues></_>
        <_>
          <internalNodes>
            0 -1 210 3.6523543298244476e-02</internalNodes>
          <leafValues>
            -8.8655114173889160e-02 3.9118269085884094e-01</leafValues></_>
        <_>
          <internalNodes>
            0 -1 272 9.0923008974641562e-04</internalNodes>
          <leafValues>
            -1.0533801466226578e-01 3.3391961455345154e-01</leafValues></_></weakClassifiers></_>
    <!-- stage 10 -->
    <_>
      <maxWeakCount>39</maxWeakCount>
      <stageThreshold>-1.8265974521636963e+00</stageThreshold>
      <weakClassifiers>
        <_>
          <internalNodes>
            0 -1 257 1.5983869135379791e-01</internalNodes>
          <leafValues>
            -7.5953799486160278e-01 -9.5238097012042999e-02</leafValues></_>
        <_>
          <internalNodes>
            0 -1 247 -4.7401833580806851e-04</internalNodes>
          <leafValues>
            4.1996672749519348e-01 -2.6958361268043518e-01</leafValues></_>
        <_>
          <internalNodes>
            0 -1 394 3.2488370197825134e-04</internalNodes>
          <leafValues>
            -7.1924418210983276e-02 4.4128355383872986e-01</leafValues></_>
        <_>
          <internalNodes>
            0 -1 76 -3.8805190473794937e-02</internalNodes>
          <leafValues>
            5.0538915395736694e-01 -5.3032219409942627e-02</leafValues></_>
        <_>
          <internalNodes>
            0 -1 217 2.6944508776068687e-02</internalNodes>
          <leafValues>
            -1.0948595404624939e-01 2.5770178437232971e-01</leafValues></_>
        <_>
          <internalNodes>
            0 -1 152 1.8297722563147545e-03</internalNodes>
          <leafValues>
            -1.4996503293514252e-01 2.0765751600265503e-01</leafValues></_>
        <_>
          <internalNodes>
            0 -1 327 4.0593110024929047e-03</internalNodes>
          <leafValues>
            4.9540225416421890e-02 -6.3549447059631348e-01</leafValues></_>
        <_>
          <internalNodes>
            0 -1 136 -5.8926902711391449e-03</internalNodes>
          <leafValues>
            3.3350872993469238e-01 -8.5335493087768555e-02</leafValues></_>
        <_>
          <internalNodes>
            0 -1 341 -1.9544251263141632e-03</internalNodes>
          <leafValues>
            1.3567981123924255e-01 -2.2933803498744965e-01</leafValues></_>
        <_>
          <internalNodes>
            0 -1 388 -8.8600918388692662e-06</internalNodes>
          <leafValues>
            2.2421693801879883e-01 -1.3468722999095917e-01</leafValues></_>
        <_>
          <internalNodes>
            0 -1 103 8.8791293819667771e-06</internalNodes>
          <leafValues>
            -1.5716153383255005e-01 1.9055961072444916e-01</leafValues></_>
        <_>
          <internalNodes>
            0 -1 516 -2.8839367441833019e-03</internalNodes>
          <leafValues>
            7.5204420089721680e-01 -4.8459496349096298e-02</leafValues></_>
        <_>
          <internalNodes>
            0 -1 501 -5.8089627418667078e-04</internalNodes>
          <leafValues>
            -4.1956171393394470e-01 7.9593077301979065e-02</leafValues></_>
        <_>
          <internalNodes>
            0 -1 59 -1.9919314980506897e-01</internalNodes>
          <leafValues>
            -9.7377073764801025e-01 3.2042931765317917e-02</leafValues></_>
        <_>
          <internalNodes>
            0 -1 163 9.9786017090082169e-03</internalNodes>
          <leafValues>
            -7.8066617250442505e-02 3.9227369427680969e-01</leafValues></_>
        <_>
          <internalNodes>
            0 -1 288 5.2013399545103312e-04</internalNodes>
          <leafValues>
            -4.8919219523668289e-02 5.7316774129867554e-01</leafValues></_>
        <_>
          <internalNodes>
            0 -1 335 -1.3743567978963256e-04</internalNodes>
          <leafValues>
            -2.5027841329574585e-01 1.2136644124984741e-01</leafValues></_>
        <_>
          <internalNodes>
            0 -1 349 4.5825337292626500e-04</internalNodes>
          <leafValues>
            1.0445842146873474e-01 -2.8751593828201294e-01</leafValues></_>
        <_>
          <internalNodes>
            0 -1 268 4.1699223220348358e-04</internalNodes>
          <leafValues>
            -1.5907426178455353e-01 1.9267179071903229e-01</leafValues></_>
        <_>
          <internalNodes>
            0 -1 509 -1.6332087398041040e-04</internalNodes>
          <leafValues>
            -3.5114356875419617e-01 8.3510033786296844e-02</leafValues></_>
        <_>
          <internalNodes>
            0 -1 396 2.5631079915910959e-04</internalNodes>
          <leafValues>
            -7.9824082553386688e-02 3.8516750931739807e-01</leafValues></_>
        <_>
          <internalNodes>
            0 -1 303 3.5768445581197739e-02</internalNodes>
          <leafValues>
            3.4851100295782089e-02 -8.5296541452407837e-01</leafValues></_>
        <_>
          <internalNodes>
            0 -1 196 -8.4572401829063892e-04</internalNodes>
          <leafValues>
            1.8407970666885376e-01 -1.5258392691612244e-01</leafValues></_>
        <_>
          <internalNodes>
            0 -1 30 5.8333273045718670e-04</internalNodes>
          <leafValues>
            7.1519389748573303e-02 -4.4013890624046326e-01</leafValues></_>
        <_>
          <internalNodes>
            0 -1 106 4.5071985572576523e-02</internalNodes>
          <leafValues>
            -1.0214305669069290e-01 3.1001305580139160e-01</leafValues></_>
        <_>
          <internalNodes>
            0 -1 438 -7.1602524258196354e-04</internalNodes>
          <leafValues>
            6.0593330860137939e-01 -5.5708479136228561e-02</leafValues></_>
        <_>
          <internalNodes>
            0 -1 291 -1.8376244697719812e-03</internalNodes>
          <leafValues>
            -6.1338043212890625e-01 5.1065184175968170e-02</leafValues></_>
        <_>
          <internalNodes>
            0 -1 378 -1.3962835073471069e-03</internalNodes>
          <leafValues>
            3.5055869817733765e-01 -9.6157848834991455e-02</leafValues></_>
        <_>
          <internalNodes>
            0 -1 508 -9.4768183771520853e-05</internalNodes>
          <leafValues>
            -3.4405842423439026e-01 8.3016179502010345e-02</leafValues></_>
        <_>
          <internalNodes>
            0 -1 478 3.9925267919898033e-03</internalNodes>
          <leafValues>
            -1.2939774990081787e-01 2.3413784801959991e-01</leafValues></_>
        <_>
          <internalNodes>
            0 -1 481 -5.4409061558544636e-03</internalNodes>
          <leafValues>
            3.0904746055603027e-01 -1.1954424530267715e-01</leafValues></_>
        <_>
          <internalNodes>
            0 -1 24 3.4772143699228764e-03</internalNodes>
          <leafValues>
            6.9905869662761688e-02 -4.4230711460113525e-01</leafValues></_>
        <_>
          <internalNodes>
            0 -1 369 -9.3660037964582443e-04</internalNodes>
          <leafValues>
            4.7864794731140137e-01 -6.4444303512573242e-02</leafValues></_>
        <_>
          <internalNodes>
            0 -1 423 2.2549938876181841e-04</internalNodes>
          <leafValues>
            -1.7149281501770020e-01 1.8731901049613953e-01</leafValues></_>
        <_>
          <internalNodes>
            0 -1 18 6.9608329795300961e-04</internalNodes>
          <leafValues>
            5.1278229802846909e-02 -5.7472604513168335e-01</leafValues></_>
        <_>
          <internalNodes>
            0 -1 157 -6.4272119197994471e-04</internalNodes>
          <leafValues>
            3.1388056278228760e-01 -1.0478958487510681e-01</leafValues></_>
        <_>
          <internalNodes>
            0 -1 256 1.1984965763986111e-02</internalNodes>
          <leafValues>
            -9.6759200096130371e-02 3.0473050475120544e-01</leafValues></_>
        <_>
          <internalNodes>
            0 -1 285 -3.5747734364122152e-04</internalNodes>
          <leafValues>
            3.9520359039306641e-01 -8.1767335534095764e-02</leafValues></_>
        <_>
          <internalNodes>
            0 -1 427 -1.5638284385204315e-03</internalNodes>
          <leafValues>
            -5.3395336866378784e-01 6.2449097633361816e-02</leafValues></_></weakClassifiers></_>
    <!-- stage 11 -->
    <_>
      <maxWeakCount>42</maxWeakCount>
      <stageThreshold>-1.8983544111251831e+00</stageThreshold>
      <weakClassifiers>
        <_>
          <internalNodes>
            0 -1 332 -6.2257039826363325e-04</internalNodes>
          <leafValues>
            4.4776119291782379e-02 -7.5887262821197510e-01</leafValues></_>
        <_>
          <internalNodes>
            0 -1 128 2.4968007579445839e-02</internalNodes>
          <leafValues>
            -3.4626373648643494e-01 8.2856766879558563e-02</leafValues></_>
        <_>
          <internalNodes>
            0 -1 29 -7.2508503217250109e-04</internalNodes>
          <leafValues>
            1.8723250925540924e-01 -1.9473819434642792e-01</leafValues></_>
        <_>
          <internalNodes>
            0 -1 182 -7.9629365354776382e-03</internalNodes>
          <leafValues>
            3.9919632673263550e-01 -9.2609010636806488e-02</leafValues></_>
        <_>
          <internalNodes>
            0 -1 121 -3.9322860538959503e-03</internalNodes>
          <leafValues>
            2.8586891293525696e-01 -1.5326517820358276e-01</leafValues></_>
        <_>
          <internalNodes>
            0 -1 197 2.0217103883624077e-04</internalNodes>
          <leafValues>
            -9.1591566801071167e-02 3.8606071472167969e-01</leafValues></_>
        <_>
          <internalNodes>
            0 -1 124 5.7707186788320541e-03</internalNodes>
          <leafValues>
            -6.7358985543251038e-02 4.9234536290168762e-01</leafValues></_>
        <_>
          <internalNodes>
            0 -1 43 -3.2529663294553757e-02</internalNodes>
          <leafValues>
            -4.3857270479202271e-01 7.5326703488826752e-02</leafValues></_>
        <_>
          <internalNodes>
            0 -1 198 3.9855169598013163e-04</internalNodes>
          <leafValues>
            -3.7875708192586899e-02 5.2690976858139038e-01</leafValues></_>
        <_>
          <internalNodes>
            0 -1 451 5.8536644792184234e-04</internalNodes>
          <leafValues>
            -5.5816724896430969e-02 5.2248638868331909e-01</leafValues></_>
        <_>
          <internalNodes>
            0 -1 357 -1.0909445583820343e-02</internalNodes>
          <leafValues>
            -9.3676990270614624e-01 3.4390792250633240e-02</leafValues></_>
        <_>
          <internalNodes>
            0 -1 184 1.8194997683167458e-02</internalNodes>
          <leafValues>
            -1.0187047719955444e-01 3.0492514371871948e-01</leafValues></_>
        <_>
          <internalNodes>
            0 -1 263 -5.2888470236212015e-04</internalNodes>
          <leafValues>
            4.8238143324851990e-01 -7.3799692094326019e-02</leafValues></_>
        <_>
          <internalNodes>
            0 -1 146 3.1377181410789490e-02</internalNodes>
          <leafValues>
            4.2316947132349014e-02 -8.3470356464385986e-01</leafValues></_>
        <_>
          <internalNodes>
            0 -1 371 1.3139586662873626e-03</internalNodes>
          <leafValues>
            6.6449753940105438e-02 -5.1453059911727905e-01</leafValues></_>
        <_>
          <internalNodes>
            0 -1 297 -5.0371447578072548e-03</internalNodes>
          <leafValues>
            -4.7626218199729919e-01 7.9205520451068878e-02</leafValues></_>
        <_>
          <internalNodes>
            0 -1 112 -4.2285621166229248e-03</internalNodes>
          <leafValues>
            2.4078372120857239e-01 -1.3557131588459015e-01</leafValues></_>
        <_>
          <internalNodes>
            0 -1 376 -3.8048210553824902e-03</internalNodes>
          <leafValues>
            6.0887545347213745e-01 -5.0107378512620926e-02</leafValues></_>
        <_>
          <internalNodes>
            0 -1 108 4.3511879630386829e-04</internalNodes>
          <leafValues>
            7.4667714536190033e-02 -3.9567452669143677e-01</leafValues></_>
        <_>
          <internalNodes>
            0 -1 253 2.2523728013038635e-01</internalNodes>
          <leafValues>
            4.1327655315399170e-02 -7.7665281295776367e-01</leafValues></_>
        <_>
          <internalNodes>
            0 -1 214 -1.0573794133961201e-02</internalNodes>
          <leafValues>
            -5.2085673809051514e-01 5.7492241263389587e-02</leafValues></_>
        <_>
          <internalNodes>
            0 -1 309 6.3779496122151613e-04</internalNodes>
          <leafValues>
            4.8168722540140152e-02 -5.6458443403244019e-01</leafValues></_>
        <_>
          <internalNodes>
            0 -1 86 -1.2482678890228271e-01</internalNodes>
          <leafValues>
            -7.9017102718353271e-01 3.4016769379377365e-02</leafValues></_>
        <_>
          <internalNodes>
            0 -1 248 2.8357457369565964e-02</internalNodes>
          <leafValues>
            -8.6917132139205933e-02 3.9623081684112549e-01</leafValues></_>
        <_>
          <internalNodes>
            0 -1 436 4.8737705219537020e-04</internalNodes>
          <leafValues>
            -6.2376171350479126e-02 4.8333576321601868e-01</leafValues></_>
        <_>
          <internalNodes>
            0 -1 381 6.5782684832811356e-03</internalNodes>
          <leafValues>
            6.6853336989879608e-02 -5.1109147071838379e-01</leafValues></_>
        <_>
          <internalNodes>
            0 -1 208 -1.9080555438995361e-01</internalNodes>
          <leafValues>
            7.6019716262817383e-01 -4.9859017133712769e-02</leafValues></_>
        <_>
          <internalNodes>
            0 -1 402 -2.0845914259552956e-03</internalNodes>
          <leafValues>
            1.9807471334934235e-01 -1.5920794010162354e-01</leafValues></_>
        <_>
          <internalNodes>
            0 -1 430 3.8774637505412102e-04</internalNodes>
          <leafValues>
            1.0657128691673279e-01 -2.7659997344017029e-01</leafValues></_>
        <_>
          <internalNodes>
            0 -1 320 -6.0437159845605493e-04</internalNodes>
          <leafValues>
            7.6446717977523804e-01 -4.0135197341442108e-02</leafValues></_>
        <_>
          <internalNodes>
            0 -1 507 2.3632822558283806e-03</internalNodes>
          <leafValues>
            7.3357187211513519e-02 -4.6355551481246948e-01</leafValues></_>
        <_>
          <internalNodes>
            0 -1 421 -1.0915161110460758e-03</internalNodes>
          <leafValues>
            2.4619200825691223e-01 -1.2750799953937531e-01</leafValues></_>
        <_>
          <internalNodes>
            0 -1 487 9.5632753800600767e-04</internalNodes>
          <leafValues>
            -5.2374679595232010e-02 5.4064005613327026e-01</leafValues></_>
        <_>
          <internalNodes>
            0 -1 340 1.2518443400040269e-03</internalNodes>
          <leafValues>
            4.2312867939472198e-02 -8.0757212638854980e-01</leafValues></_>
        <_>
          <internalNodes>
            0 -1 391 6.4231082797050476e-04</internalNodes>
          <leafValues>
            -6.0650944709777832e-02 5.4434919357299805e-01</leafValues></_>
        <_>
          <internalNodes>
            0 -1 432 -6.7789939930662513e-04</internalNodes>
          <leafValues>
            -7.6212161779403687e-01 4.3342668563127518e-02</leafValues></_>
        <_>
          <internalNodes>
            0 -1 194 7.6936895493417978e-04</internalNodes>
          <leafValues>
            -7.1294389665126801e-02 4.6404990553855896e-01</leafValues></_>
        <_>
          <internalNodes>
            0 -1 66 -2.6064671692438424e-04</internalNodes>
          <leafValues>
            -5.1988601684570312e-01 6.0816317796707153e-02</leafValues></_>
        <_>
          <internalNodes>
            0 -1 282 -9.0528556029312313e-06</internalNodes>
          <leafValues>
            1.6750968992710114e-01 -1.8346828222274780e-01</leafValues></_>
        <_>
          <internalNodes>
            0 -1 218 3.7517496384680271e-03</internalNodes>
          <leafValues>
            -9.9378287792205811e-02 3.1248795986175537e-01</leafValues></_>
        <_>
          <internalNodes>
            0 -1 279 -2.4636446032673120e-03</internalNodes>
          <leafValues>
            -5.7067525386810303e-01 5.3322859108448029e-02</leafValues></_>
        <_>
          <internalNodes>
            0 -1 493 2.5615071877837181e-02</internalNodes>
          <leafValues>
            -4.4647403061389923e-02 7.8124320507049561e-01</leafValues></_></weakClassifiers></_>
    <!-- stage 12 -->
    <_>
      <maxWeakCount>49</maxWeakCount>
      <stageThreshold>-1.9924464225769043e+00</stageThreshold>
      <weakClassifiers>
        <_>
          <internalNodes>
            0 -1 287 -5.7398737408220768e-04</internalNodes>
          <leafValues>
            -1.0526315867900848e-01 -7.6177090406417847e-01</leafValues></_>
        <_>
          <internalNodes>
            0 -1 172 -7.2226345539093018e-02</internalNodes>
          <leafValues>
            3.0901613831520081e-01 -3.0089959502220154e-01</leafValues></_>
        <_>
          <internalNodes>
            0 -1 399 -3.1312086503021419e-04</internalNodes>
          <leafValues>
            4.6427747607231140e-01 -8.1457987427711487e-02</leafValues></_>
        <_>
          <internalNodes>
            0 -1 139 1.5850672498345375e-02</internalNodes>
          <leafValues>
            -9.0988859534263611e-02 3.5777235031127930e-01</leafValues></_>
        <_>
          <internalNodes>
            0 -1 154 5.2922507748007774e-03</internalNodes>
          <leafValues>
            -1.8724288046360016e-01 1.7597892880439758e-01</leafValues></_>
        <_>
          <internalNodes>
            0 -1 449 1.0019039036706090e-03</internalNodes>
          <leafValues>
            -6.1479035764932632e-02 4.6840560436248779e-01</leafValues></_>
        <_>
          <internalNodes>
            0 -1 249 -5.6255096569657326e-03</internalNodes>
          <leafValues>
            3.4101307392120361e-01 -9.1476052999496460e-02</leafValues></_>
        <_>
          <internalNodes>
            0 -1 271 2.3348536342382431e-03</internalNodes>
          <leafValues>
            -1.2816426157951355e-01 2.0959685742855072e-01</leafValues></_>
        <_>
          <internalNodes>
            0 -1 259 -2.8055411530658603e-04</internalNodes>
          <leafValues>
            4.3878549337387085e-01 -6.3351742923259735e-02</leafValues></_>
        <_>
          <internalNodes>
            0 -1 234 7.1316049434244633e-04</internalNodes>
          <leafValues>
            6.8212293088436127e-02 -4.3572694063186646e-01</leafValues></_>
        <_>
          <internalNodes>
            0 -1 39 2.4840440601110458e-02</internalNodes>
          <leafValues>
            -1.0190062224864960e-01 2.9775112867355347e-01</leafValues></_>
        <_>
          <internalNodes>
            0 -1 398 1.2466246262192726e-02</internalNodes>
          <leafValues>
            -1.0090018808841705e-01 2.8858953714370728e-01</leafValues></_>
        <_>
          <internalNodes>
            0 -1 312 -7.4748877523234114e-06</internalNodes>
          <leafValues>
            1.5460841357707977e-01 -1.9283095002174377e-01</leafValues></_>
        <_>
          <internalNodes>
            0 -1 407 -8.2254651933908463e-03</internalNodes>
          <leafValues>
            2.2426916658878326e-01 -1.1896481364965439e-01</leafValues></_>
        <_>
          <internalNodes>
            0 -1 211 3.6717362701892853e-02</internalNodes>
          <leafValues>
            -8.9297726750373840e-02 3.2840022444725037e-01</leafValues></_>
        <_>
          <internalNodes>
            0 -1 466 -7.6603442430496216e-03</internalNodes>
          <leafValues>
            -9.6456724405288696e-01 2.9348379001021385e-02</leafValues></_>
        <_>
          <internalNodes>
            0 -1 177 -3.4686257131397724e-03</internalNodes>
          <leafValues>
            2.5529628992080688e-01 -1.1995846778154373e-01</leafValues></_>
        <_>
          <internalNodes>
            0 -1 333 6.5819425508379936e-03</internalNodes>
          <leafValues>
            -4.3769922107458115e-02 6.4986717700958252e-01</leafValues></_>
        <_>
          <internalNodes>
            0 -1 334 1.6514807066414505e-04</internalNodes>
          <leafValues>
            1.1138290911912918e-01 -3.0480438470840454e-01</leafValues></_>
        <_>
          <internalNodes>
            0 -1 400 9.3115877825766802e-04</internalNodes>
          <leafValues>
            -6.6205553710460663e-02 4.6806153655052185e-01</leafValues></_>
        <_>
          <internalNodes>
            0 -1 343 -2.5494363158941269e-02</internalNodes>
          <leafValues>
            5.0591897964477539e-01 -5.3307145833969116e-02</leafValues></_>
        <_>
          <internalNodes>
            0 -1 126 1.3700598478317261e-01</internalNodes>
          <leafValues>
            3.4954797476530075e-02 -9.0336245298385620e-01</leafValues></_>
        <_>
          <internalNodes>
            0 -1 56 3.0183549970388412e-03</internalNodes>
          <leafValues>
            -1.8136353790760040e-01 1.6258674860000610e-01</leafValues></_>
        <_>
          <internalNodes>
            0 -1 202 -1.3241061568260193e-01</internalNodes>
          <leafValues>
            2.6926454901695251e-01 -1.0555077344179153e-01</leafValues></_>
        <_>
          <internalNodes>
            0 -1 165 4.9568921327590942e-02</internalNodes>
          <leafValues>
            -7.7288605272769928e-02 3.6126160621643066e-01</leafValues></_>
        <_>
          <internalNodes>
            0 -1 390 -3.7551033310592175e-03</internalNodes>
          <leafValues>
            -9.2804342508316040e-01 2.9941333457827568e-02</leafValues></_>
        <_>
          <internalNodes>
            0 -1 379 -8.5179880261421204e-04</internalNodes>
          <leafValues>
            4.6073919534683228e-01 -7.0456378161907196e-02</leafValues></_>
        <_>
          <internalNodes>
            0 -1 393 -7.0549109950661659e-03</internalNodes>
          <leafValues>
            2.7624508738517761e-01 -9.2320233583450317e-02</leafValues></_>
        <_>
          <internalNodes>
            0 -1 480 -4.5207858784124255e-04</internalNodes>
          <leafValues>
            2.0122744143009186e-01 -1.4822657406330109e-01</leafValues></_>
        <_>
          <internalNodes>
            0 -1 241 1.2114617973566055e-02</internalNodes>
          <leafValues>
            -1.3088223338127136e-01 2.1002580225467682e-01</leafValues></_>
        <_>
          <internalNodes>
            0 -1 138 -3.8440883159637451e-02</internalNodes>
          <leafValues>
            3.7141498923301697e-01 -8.8288083672523499e-02</leafValues></_>
        <_>
          <internalNodes>
            0 -1 143 2.1690953522920609e-02</internalNodes>
          <leafValues>
            3.0727714300155640e-02 -9.5185923576354980e-01</leafValues></_>
        <_>
          <internalNodes>
            0 -1 145 2.1501653827726841e-04</internalNodes>
          <leafValues>
            -8.8551431894302368e-02 3.6378178000450134e-01</leafValues></_>
        <_>
          <internalNodes>
            0 -1 69 2.4565984494984150e-04</internalNodes>
          <leafValues>
            1.0721161961555481e-01 -3.0856093764305115e-01</leafValues></_>
        <_>
          <internalNodes>
            0 -1 288 5.1978521514683962e-04</internalNodes>
          <leafValues>
            -5.3495891392230988e-02 5.4816913604736328e-01</leafValues></_>
        <_>
          <internalNodes>
            0 -1 117 -1.4285886427387595e-03</internalNodes>
          <leafValues>
            -5.5493277311325073e-01 5.3224105387926102e-02</leafValues></_>
        <_>
          <internalNodes>
            0 -1 203 -9.2251266323728487e-06</internalNodes>
          <leafValues>
            1.6115285456180573e-01 -1.8073129653930664e-01</leafValues></_>
        <_>
          <internalNodes>
            0 -1 316 -7.4488751124590635e-04</internalNodes>
          <leafValues>
            5.6109523773193359e-01 -5.0937980413436890e-02</leafValues></_>
        <_>
          <internalNodes>
            0 -1 166 1.6112947463989258e-01</internalNodes>
          <leafValues>
            4.3194435536861420e-02 -7.1536159515380859e-01</leafValues></_>
        <_>
          <internalNodes>
            0 -1 60 -5.8305094717070460e-04</internalNodes>
          <leafValues>
            1.3927222788333893e-01 -1.9948537647724152e-01</leafValues></_>
        <_>
          <internalNodes>
            0 -1 5 3.3386409282684326e-02</internalNodes>
          <leafValues>
            -8.0315299332141876e-02 4.6899250149726868e-01</leafValues></_>
        <_>
          <internalNodes>
            0 -1 41 1.3279524864628911e-04</internalNodes>
          <leafValues>
            1.1441532522439957e-01 -2.5476977229118347e-01</leafValues></_>
        <_>
          <internalNodes>
            0 -1 425 5.9094472089782357e-04</internalNodes>
          <leafValues>
            -5.6647144258022308e-02 5.3372442722320557e-01</leafValues></_>
        <_>
          <internalNodes>
            0 -1 2 -1.6654642240609974e-04</internalNodes>
          <leafValues>
            -4.0284523367881775e-01 7.3365129530429840e-02</leafValues></_>
        <_>
          <internalNodes>
            0 -1 45 -9.2223156243562698e-03</internalNodes>
          <leafValues>
            2.0138338208198547e-01 -1.4293226599693298e-01</leafValues></_>
        <_>
          <internalNodes>
            0 -1 109 -3.3728092908859253e-02</internalNodes>
          <leafValues>
            5.6650871038436890e-01 -5.2567902952432632e-02</leafValues></_>
        <_>
          <internalNodes>
            0 -1 104 -1.2932771351188421e-03</internalNodes>
          <leafValues>
            -4.3418395519256592e-01 7.3941685259342194e-02</leafValues></_>
        <_>
          <internalNodes>
            0 -1 183 -1.8994248239323497e-03</internalNodes>
          <leafValues>
            -5.8425825834274292e-01 4.4523261487483978e-02</leafValues></_>
        <_>
          <internalNodes>
            0 -1 329 -1.7406549304723740e-03</internalNodes>
          <leafValues>
            2.2572107613086700e-01 -1.4661411941051483e-01</leafValues></_></weakClassifiers></_>
    <!-- stage 13 -->
    <_>
      <maxWeakCount>45</maxWeakCount>
      <stageThreshold>-1.8867108821868896e+00</stageThreshold>
      <weakClassifiers>
        <_>
          <internalNodes>
            0 -1 473 -3.7463321350514889e-03</internalNodes>
          <leafValues>
            2.9870128631591797e-01 -7.5434970855712891e-01</leafValues></_>
        <_>
          <internalNodes>
            0 -1 321 -4.7295290278270841e-04</internalNodes>
          <leafValues>
            4.3446224927902222e-01 -2.7065822482109070e-01</leafValues></_>
        <_>
          <internalNodes>
            0 -1 446 3.9749138522893190e-04</internalNodes>
          <leafValues>
            -1.0156056284904480e-01 3.3479312062263489e-01</leafValues></_>
        <_>
          <internalNodes>
            0 -1 181 4.2867576703429222e-03</internalNodes>
          <leafValues>
            -1.0227273404598236e-01 2.9402226209640503e-01</leafValues></_>
        <_>
          <internalNodes>
            0 -1 230 -4.6671251766383648e-03</internalNodes>
          <leafValues>
            2.5047931075096130e-01 -1.2477545440196991e-01</leafValues></_>
        <_>
          <internalNodes>
            0 -1 175 1.4725730754435062e-02</internalNodes>
          <leafValues>
            -1.2128991633653641e-01 2.3786416649818420e-01</leafValues></_>
        <_>
          <internalNodes>
            0 -1 283 7.5730623211711645e-04</internalNodes>
          <leafValues>
            -8.4599651396274567e-02 3.4068733453750610e-01</leafValues></_>
        <_>
          <internalNodes>
            0 -1 156 -4.0994927287101746e-02</internalNodes>
          <leafValues>
            3.8913321495056152e-01 -6.9896057248115540e-02</leafValues></_>
        <_>
          <internalNodes>
            0 -1 15 -1.3677656650543213e-02</internalNodes>
          <leafValues>
            2.9686871170997620e-01 -9.1714076697826385e-02</leafValues></_>
        <_>
          <internalNodes>
            0 -1 323 5.9381459141150117e-04</internalNodes>
          <leafValues>
            -1.3978353142738342e-01 2.0273408293724060e-01</leafValues></_>
        <_>
          <internalNodes>
            0 -1 130 -5.7926826179027557e-02</internalNodes>
          <leafValues>
            -7.0385628938674927e-01 7.7175408601760864e-02</leafValues></_>
        <_>
          <internalNodes>
            0 -1 64 -8.7526888819411397e-04</internalNodes>
          <leafValues>
            -4.7339120507240295e-01 6.9877706468105316e-02</leafValues></_>
        <_>
          <internalNodes>
            0 -1 237 -4.7434624866582453e-04</internalNodes>
          <leafValues>
            5.5190372467041016e-01 -8.6583219468593597e-02</leafValues></_>
        <_>
          <internalNodes>
            0 -1 237 4.0232289393316023e-06</internalNodes>
          <leafValues>
            -1.6547960042953491e-01 2.0003728568553925e-01</leafValues></_>
        <_>
          <internalNodes>
            0 -1 485 2.3000859655439854e-03</internalNodes>
          <leafValues>
            -1.0204402357339859e-01 2.8936195373535156e-01</leafValues></_>
        <_>
          <internalNodes>
            0 -1 489 -4.3388127232901752e-04</internalNodes>
          <leafValues>
            1.9141855835914612e-01 -1.5215560793876648e-01</leafValues></_>
        <_>
          <internalNodes>
            0 -1 61 -9.7105074673891068e-03</internalNodes>
          <leafValues>
            -7.8570228815078735e-01 3.9859302341938019e-02</leafValues></_>
        <_>
          <internalNodes>
            0 -1 168 1.7228552605956793e-03</internalNodes>
          <leafValues>
            -1.0413447767496109e-01 3.0494624376296997e-01</leafValues></_>
        <_>
          <internalNodes>
            0 -1 158 6.6657830029726028e-04</internalNodes>
          <leafValues>
            -8.5091859102249146e-02 3.4694021940231323e-01</leafValues></_>
        <_>
          <internalNodes>
            0 -1 294 1.0360982269048691e-03</internalNodes>
          <leafValues>
            -1.0090725123882294e-01 3.1823936104774475e-01</leafValues></_>
        <_>
          <internalNodes>
            0 -1 305 -6.4335684292018414e-03</internalNodes>
          <leafValues>
            -5.8817845582962036e-01 5.1142107695341110e-02</leafValues></_>
        <_>
          <internalNodes>
            0 -1 266 -1.3189571909606457e-03</internalNodes>
          <leafValues>
            2.2232417762279510e-01 -1.5358863770961761e-01</leafValues></_>
        <_>
          <internalNodes>
            0 -1 497 1.1280736362095922e-04</internalNodes>
          <leafValues>
            9.1060601174831390e-02 -3.7119328975677490e-01</leafValues></_>
        <_>
          <internalNodes>
            0 -1 240 -1.1875662021338940e-03</internalNodes>
          <leafValues>
            -8.3806908130645752e-01 3.0638296157121658e-02</leafValues></_>
        <_>
          <internalNodes>
            0 -1 397 2.8020644094794989e-03</internalNodes>
          <leafValues>
            -4.9830161035060883e-02 7.3640614748001099e-01</leafValues></_>
        <_>
          <internalNodes>
            0 -1 16 -4.1383104398846626e-03</internalNodes>
          <leafValues>
            5.2021121978759766e-01 -4.8718929290771484e-02</leafValues></_>
        <_>
          <internalNodes>
            0 -1 375 -8.2718692719936371e-03</internalNodes>
          <leafValues>
            5.7388597726821899e-01 -4.8352036625146866e-02</leafValues></_>
        <_>
          <internalNodes>
            0 -1 324 -6.6269340459257364e-04</internalNodes>
          <leafValues>
            5.1700931787490845e-01 -5.2804574370384216e-02</leafValues></_>
        <_>
          <internalNodes>
            0 -1 46 1.1420517694205046e-04</internalNodes>
          <leafValues>
            1.0658484697341919e-01 -2.7652770280838013e-01</leafValues></_>
        <_>
          <internalNodes>
            0 -1 460 2.0301745098549873e-04</internalNodes>
          <leafValues>
            -8.6581334471702576e-02 3.6452898383140564e-01</leafValues></_>
        <_>
          <internalNodes>
            0 -1 280 -1.8983529880642891e-03</internalNodes>
          <leafValues>
            -6.3093173503875732e-01 4.9886226654052734e-02</leafValues></_>
        <_>
          <internalNodes>
            0 -1 213 2.2182429675012827e-03</internalNodes>
          <leafValues>
            -1.4204367995262146e-01 2.1527059376239777e-01</leafValues></_>
        <_>
          <internalNodes>
            0 -1 134 8.2446518354117870e-04</internalNodes>
          <leafValues>
            9.2883743345737457e-02 -3.9887979626655579e-01</leafValues></_>
        <_>
          <internalNodes>
            0 -1 133 2.1356110664783046e-05</internalNodes>
          <leafValues>
            -2.2341035306453705e-01 1.5262950956821442e-01</leafValues></_>
        <_>
          <internalNodes>
            0 -1 330 -5.0676381215453148e-04</internalNodes>
          <leafValues>
            3.9615151286125183e-01 -9.0319186449050903e-02</leafValues></_>
        <_>
          <internalNodes>
            0 -1 62 -1.0316201951354742e-03</internalNodes>
          <leafValues>
            3.1664752960205078e-01 -9.6010640263557434e-02</leafValues></_>
        <_>
          <internalNodes>
            0 -1 74 2.9551476472988725e-04</internalNodes>
          <leafValues>
            9.2336438596248627e-02 -3.2457223534584045e-01</leafValues></_>
        <_>
          <internalNodes>
            0 -1 82 3.4809135831892490e-04</internalNodes>
          <leafValues>
            1.1375680565834045e-01 -2.7087864279747009e-01</leafValues></_>
        <_>
          <internalNodes>
            0 -1 72 -1.4661470428109169e-02</internalNodes>
          <leafValues>
            3.9780786633491516e-01 -9.3096822500228882e-02</leafValues></_>
        <_>
          <internalNodes>
            0 -1 269 -3.4326739842072129e-04</internalNodes>
          <leafValues>
            5.4380595684051514e-01 -5.8548100292682648e-02</leafValues></_>
        <_>
          <internalNodes>
            0 -1 1 2.6821717619895935e-04</internalNodes>
          <leafValues>
            9.7919479012489319e-02 -3.6790058016777039e-01</leafValues></_>
        <_>
          <internalNodes>
            0 -1 49 -3.1265613506548107e-04</internalNodes>
          <leafValues>
            2.3511277139186859e-01 -1.4170585572719574e-01</leafValues></_>
        <_>
          <internalNodes>
